%YAML:1.0
my_nn: !!opencv-ml-ann-mlp
   layer_sizes: !!opencv-matrix
      rows: 1
      cols: 4
      dt: i
      data: [ 180, 30, 20, 1 ]
   activation_function: SIGMOID_SYM
   f_param1: 5.9999999999999998e-001
   f_param2: 1.
   min_val: -9.4999999999999996e-001
   max_val: 9.4999999999999996e-001
   min_val1: -9.7999999999999998e-001
   max_val1: 9.7999999999999998e-001
   training_params:
      train_method: BACKPROP
      dw_scale: 1.0000000000000001e-001
      moment_scale: 1.0000000000000001e-001
      term_criteria: { epsilon:9.9999999747524271e-007, iterations:1000 }
   input_scale: [ 1.2440514617437261e+001, -4.6789302918304743e-001,
       1.2440511294250634e+001, -1.0205276154384972e+000,
       1.2338696327004364e+001, -1.6292306295720218e+000,
       1.0568153417372191e+002, -1.7628796207431456e+001,
       4.6704515429809945e+001, -9.3055281995565355e+000,
       1.7019459626944357e+001, -3.9972716600562697e+000,
       1.1816894874814706e+001, -2.8893377875674200e+000,
       1.1055097653780097e+001, -2.7634087972764010e+000,
       1.2469752729855289e+001, -3.1216032932855082e+000,
       1.3303348433787544e+001, -3.3230939638626458e+000,
       1.3424554606603285e+001, -3.3236739280187413e+000,
       1.4499229768042561e+001, -3.5203112379567023e+000,
       1.3256531724308656e+001, -3.2926238716467671e+000,
       1.1467178068874068e+001, -2.9125037289893214e+000,
       9.5694515511003058e+000, -2.5422269403489635e+000,
       9.0266223237055385e+000, -2.4400376436355926e+000,
       8.3153110997520532e+000, -2.2668789955740420e+000,
       8.2055079385040504e+000, -2.1977183428792522e+000,
       8.7505005681723134e+000, -2.3313551460584727e+000,
       9.3571389815572239e+000, -2.5334552585629360e+000,
       9.4544846761894572e+000, -2.5512596790521642e+000,
       1.0223133615451866e+001, -2.7767703764632152e+000,
       1.0657077116594605e+001, -2.8484985718556457e+000,
       7.8620440493657737e+000, -2.2051049416374817e+000,
       8.3857608276012616e+000, -2.2698257177931689e+000,
       9.5354764165305728e+000, -2.5391526046936166e+000,
       1.1947517432902274e+001, -3.0341945745856407e+000,
       1.1439003202487340e+001, -2.9953495842671902e+000,
       9.4343419753658466e+000, -2.5529636547900476e+000,
       8.6506604599192229e+000, -2.4035235662493140e+000,
       8.1088925751652781e+000, -2.3495208051006444e+000,
       7.6074335665625759e+000, -2.2394188898038454e+000,
       8.0547365929896433e+000, -2.3794223575397595e+000,
       9.4208433470997228e+000, -2.6345203602348439e+000,
       8.3519124663290985e+000, -2.3486610463289526e+000,
       7.9529770512035549e+000, -2.2135132201179535e+000,
       8.5051866263344387e+000, -2.3237322100597999e+000,
       9.7885197429361579e+000, -2.5686613458281204e+000,
       9.2651697183009016e+000, -2.3907596266771587e+000,
       8.0999941555742332e+000, -2.1983725828606770e+000,
       8.6056235776038736e+000, -2.2809091090322031e+000,
       1.0988471708588785e+001, -2.8102618675595954e+000,
       1.2864336636315416e+001, -3.1941390148104460e+000,
       1.0495706729993399e+001, -2.6777213680044558e+000,
       1.0110710179386025e+001, -2.5916000374795618e+000,
       1.0010678682317247e+001, -2.5014460094651443e+000,
       9.5577572352539324e+000, -2.4254724084782895e+000,
       8.2935484035187379e+000, -2.1604381330261071e+000,
       7.8618239361214259e+000, -2.1071294804330623e+000,
       8.5287373504572841e+000, -2.2201463187934025e+000,
       9.2689867154194427e+000, -2.3826129091786790e+000,
       8.6724211941678799e+000, -2.2430613541535527e+000,
       7.9221423584574673e+000, -2.0335456801514433e+000,
       8.3556255364175325e+000, -2.1459188005624856e+000,
       1.0175717655962213e+001, -2.4963405424169691e+000,
       1.2716859870645266e+001, -3.0489210365830628e+000,
       1.5301761592853490e+001, -3.5161175168314225e+000,
       1.6435903658125433e+001, -3.7748196647172247e+000,
       1.3096065786922079e+001, -3.0732554388960533e+000,
       1.1371925562103414e+001, -2.7565076205321399e+000,
       9.7737232497326385e+000, -2.4039158255410968e+000,
       8.8215272147297661e+000, -2.2396293849275484e+000,
       8.5599095949865163e+000, -2.2234016715064415e+000,
       8.3032637910179510e+000, -2.1702029285383233e+000,
       8.9080470103889233e+000, -2.2664290598904322e+000,
       9.4566653053163403e+000, -2.3701162901502935e+000,
       9.6256657295126171e+000, -2.4257711845718037e+000,
       1.0224631709119469e+001, -2.6230065654999080e+000,
       8.8463579322766837e+000, -2.2806237338203426e+000,
       8.7256226462139956e+000, -2.2159107388006203e+000,
       9.2424276562334597e+000, -2.2690264135764973e+000,
       1.0988101477430609e+001, -2.6040721745540432e+000,
       1.7946434524306216e+001, -4.0663935171630978e+000,
       2.7812090480227077e+001, -6.3013883887725797e+000,
       1.5178701673960374e+001, -3.5226656261297133e+000,
       1.2211083325554155e+001, -2.9365257354081460e+000,
       1.2653917188855896e+001, -3.1196341795564608e+000,
       1.0550723230434158e+001, -2.5635859607478091e+000,
       1.1390468425434145e+001, -2.7686393276419925e+000,
       1.1396576942739108e+001, -2.8062021467381624e+000,
       1.0488870125705384e+001, -2.5846574396844706e+000,
       1.1172807748200803e+001, -2.7885822847791717e+000,
       1.2436381660041762e+001, -3.0137741627221053e+000,
       1.1697685368738819e+001, -2.8899618919068257e+000,
       9.9822512326825361e+000, -2.5480721585962529e+000,
       1.0234217201145045e+001, -2.6419832694037622e+000,
       1.0389701868391409e+001, -2.6722944016963033e+000,
       1.0295746766025932e+001, -2.5303330802231740e+000,
       1.2977923876698876e+001, -3.0555061189573651e+000,
       2.5279268924260030e+001, -5.7197471622699707e+000,
       2.0784824085556963e+001, -4.7012233577523084e+000,
       2.1028871387770746e+001, -4.7170840123943130e+000,
       2.7872211757215446e+001, -6.1895501483298663e+000,
       3.1942961634479339e+001, -6.9874636187692074e+000,
       3.1937239361156859e+001, -6.9896047688144209e+000,
       3.1799043675012150e+001, -6.9632620801320142e+000,
       2.9790778134536463e+001, -6.5887262054978546e+000,
       2.0188927728896843e+001, -4.5460594260251304e+000,
       2.0116084177729405e+001, -4.5341606320689483e+000,
       3.2732083399178364e+001, -7.2527893466750060e+000,
       2.0279095679925863e+001, -4.5610853533138602e+000,
       2.0318678248260508e+001, -4.5751083878707401e+000,
       2.3547555686004600e+001, -5.3050536799331507e+000,
       2.1878654900143694e+001, -4.9803798476647945e+000,
       2.1895338407857807e+001, -4.9885359722963543e+000,
       2.5303689894327228e+001, -5.7265061494986007e+000,
       3.2287981501092894e+001, -7.1882516220178774e+000,
       2.4171849652239107e+001, -5.4741342013615544e+000,
       2.2251035943552846e+001, -5.1225214384590538e+000,
       2.7083236225127560e+001, -6.0962188262262238e+000,
       2.4441431717604477e+001, -5.5666169427157497e+000,
       2.7426095574970571e+001, -6.1485182469384974e+000,
       2.3901398360590893e+001, -5.4527402964593179e+000,
       3.3490768057907530e+001, -7.4916522273790980e+000,
       2.0399547328806850e+001, -4.7160745731302480e+000,
       2.2350885895913013e+001, -5.0840966876592049e+000,
       2.3558840110721832e+001, -5.3200247293901626e+000,
       3.8299194049723901e+001, -8.5151308466302336e+000,
       2.2580085151501780e+001, -5.1760944919129148e+000,
       2.2564143725675919e+001, -5.1722888298935183e+000,
       2.1388875158866398e+001, -4.9015504628843258e+000,
       2.5968085570862058e+001, -5.8504987198331460e+000,
       2.1361591565811789e+001, -4.8916444610857086e+000,
       2.5677082143993747e+001, -5.7816338931523381e+000,
       2.4072962670298242e+001, -5.4355392917550569e+000,
       3.1996647599700349e+001, -7.1046863069758404e+000,
       2.5339747573379153e+001, -5.7070764597071104e+000,
       3.5623435274647193e+001, -7.8924673059070427e+000,
       3.5878507085106946e+001, -7.9508304787098005e+000,
       3.6352087068785799e+001, -8.0575617146371989e+000,
       2.0831778606611238e+001, -4.7707833271540903e+000,
       2.0833182195416970e+001, -4.7704248639078131e+000,
       2.3743047099700242e+001, -5.3601988089402646e+000,
       3.6176669473576560e+001, -8.0113142386726395e+000,
       2.7093732053963006e+001, -6.0893773659743706e+000,
       1.5011876802159170e+001, -3.5514516635546065e+000,
       1.5954039429080398e+001, -3.7237902813774100e+000,
       1.7391434571988608e+001, -4.1183423133199488e+000,
       2.5674214130194784e+001, -5.7731327137896633e+000,
       2.5637399091836034e+001, -5.7637734938725877e+000,
       7.6029345341752219e+001, -1.6572394264748723e+001,
       7.5797838602681665e+001, -1.6520697131264843e+001,
       3.6799798488271804e+001, -8.1425536081974634e+000,
       2.6366149621565945e+001, -5.9344958355953050e+000,
       1.8114318524978689e+001, -4.1801852988322645e+000,
       1.4631247289715901e+001, -3.3812575639810767e+000,
       1.7593894500064614e+001, -3.9998238142430060e+000,
       2.5184277220534383e+001, -5.6788406831876461e+000,
       3.3098321193273193e+001, -7.3449556016335382e+000,
       3.0017773686039320e+001, -6.7149426763833056e+000,
       3.0244267329979955e+001, -6.7664515281959989e+000,
       2.0634893717264649e+001, -4.7593797273629068e+000,
       1.8757477535767460e+001, -4.3644227038812158e+000,
       2.1354961260130615e+001, -4.8890685209144529e+000,
       3.3054426791254066e+001, -7.3418978249443079e+000,
       7.7419074918536907e+001, -1.6911512858244262e+001,
       2.6246786105012440e+001, -5.9177841357389722e+000,
       2.6219293596493184e+001, -5.9149487094551088e+000,
       2.6191024860938612e+001, -5.9119576697090022e+000,
       7.5827418666988407e+001, -1.6601292429527206e+001,
       5.2081104236236776e+001, -1.1503288873756482e+001,
       3.5946321586646164e+001, -8.0692459252244539e+000,
       2.5826026298983965e+001, -5.8972876490510489e+000,
       2.7293321779847126e+001, -6.1863256532989617e+000,
       2.9799992065667869e+001, -6.7111603184998261e+000,
       2.9594255126312135e+001, -6.6671692081148652e+000,
       2.9573183492035572e+001, -6.6640931843142575e+000,
       2.5743366209719380e+001, -5.8338563067684248e+000,
       2.7729305946768971e+001, -6.2673731828698518e+000,
       1.7347411497657138e+001, -3.9835722087434107e+000,
       1.6692818934467798e+001, -3.8388688130750785e+000,
       2.3829477772497768e+001, -5.4011712238127281e+000,
       2.3676143364965352e+001, -5.3625586547363273e+000,
       3.1891707636202288e+001, -7.1042106958742997e+000,
       2.3994656566505554e+001, -5.4324425947883821e+000,
       3.2405558571561684e+001, -7.2158146466512623e+000,
       3.2399324272428501e+001, -7.2128376935010046e+000,
       3.2946763851686867e+001, -7.3740380544643189e+000,
       3.2926197230099035e+001, -7.3687685679986776e+000,
       3.2900303422618862e+001, -7.3633283974416734e+000 ]
   output_scale: [ 5.2631578947368418e-001, 4.9999999999999994e-001 ]
   inv_output_scale: [ 1.8999999999999999e+000, -9.4999999999999996e-001 ]
   weights:
      - [ -1.2774123935865891e-001, 3.5795222658263856e-003,
          1.6364871639647872e-002, -1.6889839152675085e-002,
          -8.6516512949425355e-003, 3.3565089444180110e-003,
          -1.4497963702127142e-002, 2.0207249095334112e-002,
          -1.1907555939552913e-002, 2.0026408047535839e-002,
          -1.7667935581890518e-002, -3.2619694230585148e-003,
          -9.7714802107213249e-003, -1.8258620319804568e-002,
          -7.9347117866000287e-003, 1.1300905619611849e-003,
          5.5415732699963137e-003, 1.4237334413552722e-002,
          1.2270458403460566e-003, -4.5983442651655271e-004,
          -8.3301662248267544e-003, -1.5900917779242681e-002,
          -9.8730629609549824e-003, -5.0991232461141027e-003,
          1.3253935071908678e-002, -1.8464593992453624e-003,
          5.2903458633760904e-003, -8.4382267296490288e-003,
          3.8223095968067263e-003, -3.7062924859816155e-003,
          -1.1318253576839586e-001, -1.1065481252393705e-002,
          1.3538485920539663e-002, -2.0413168343772423e-003,
          -9.6440774240945000e-003, 1.1645163257504509e-003,
          -4.2618311558230201e-003, 7.0589839509087966e-003,
          -1.1499288762949578e-002, 1.2049042875463392e-002,
          -2.1616599961578760e-003, -1.2242075626816194e-002,
          -4.7363130229628797e-003, -1.2385488798465150e-002,
          -6.6668734064809576e-003, -1.7276240243990903e-003,
          -2.0877191674882672e-003, -5.8418327823801211e-004,
          3.5953682051678257e-003, 1.8647286150056730e-002,
          -1.0279053480550382e-002, -1.4753622226234126e-002,
          8.0984642115294707e-004, -9.5847169691241950e-004,
          1.5667035778749012e-002, -4.8708350591769763e-003,
          2.1169957444240597e-003, -1.5520738051485605e-002,
          1.6780361228064991e-002, 1.0925738142160766e-003,
          -1.2647930262619569e-001, -4.4679292956621664e-003,
          -3.0395384367026229e-003, -1.7596258674159027e-002,
          7.8057092125181620e-003, 7.9876893699651012e-003,
          2.5982692426823671e-003, 5.3324050025344025e-003,
          7.4921510906191631e-004, 7.1690811905791504e-003,
          -6.7373526299412912e-003, -2.2243357610890396e-002,
          -8.1568179557164194e-003, -1.5277040827665303e-002,
          -2.6422138371734261e-003, 1.3095460061695006e-003,
          4.5211513793162478e-003, 1.5809069912321845e-002,
          5.0708522551892593e-003, 1.0779312303958672e-002,
          -1.2244921711087086e-002, -5.3814615100474146e-003,
          -1.4546683877052055e-002, -1.5660093222714489e-002,
          2.8640485454835369e-003, 1.0445886237857605e-002,
          5.6362539946320971e-003, -1.4742898698016649e-002,
          1.9772959936653775e-002, 2.6591410942979235e-003,
          1.6374820215505731e-001, 1.2421633954661305e-002,
          -7.2136201788786250e-003, 1.5142775252998477e-002,
          -1.2015595147302003e-002, -2.0065730344691484e-002,
          4.3538399538328694e-003, -1.4151124271007188e-002,
          9.5574097382483507e-003, -1.5036287267172363e-002,
          1.4504279797882375e-002, 3.8962730809853196e-003,
          1.3816465794399104e-002, 7.9111271631802857e-003,
          -1.0339083073457735e-002, 2.0058019733160308e-003,
          1.0813492921643878e-002, -9.2651541608561889e-003,
          -1.8786106148771043e-003, -2.0296042278883885e-002,
          1.8073034346930680e-002, 2.4810444633846261e-002,
          1.8780062202605498e-002, 2.2535767914844865e-002,
          -5.6605774943041514e-003, 8.3562558563963669e-003,
          -1.6091915624287509e-002, 1.6345612252000059e-002,
          -1.5816562737962586e-002, 4.2150379762096444e-004,
          -2.6079033015919850e-001, -1.0962384850238378e-002,
          2.4148643962569973e-002, -2.2053640206000789e-002,
          8.3707682487847886e-003, 1.9370896238044236e-002,
          -1.7162746267793311e-002, 3.1116336517373919e-002,
          7.7426817822158663e-003, 1.6077142136475403e-002,
          -3.8311704446543172e-002, -3.3600883265949830e-002,
          -2.3016621855485697e-002, -3.9932433354466071e-002,
          5.2380082658602225e-003, 1.1640097967662763e-002,
          -1.9506673731026006e-002, 1.7352237042352087e-002,
          5.8097964412867284e-003, 1.0804711908551921e-002,
          -3.7053272508589412e-002, -3.7282900616355322e-002,
          -1.2132090228655872e-002, -2.3745992391635551e-002,
          3.3902756950986108e-002, -4.0766522477485344e-003,
          1.2196989457956180e-002, -3.9215004707433949e-002,
          3.3560555523638257e-002, -1.1100455064719751e-002,
          -1.8057844426613356e-001, 7.2952669270810924e-003,
          1.5778984212120747e-002, -2.7166293230642510e-002,
          7.6375848487519327e-003, 8.1847682148427792e-003,
          -4.7489908503975308e-003, 3.9658185329951294e-002,
          6.0385601077974325e-003, 1.7614697982680085e-002,
          -2.0864377827982838e-002, -3.2252312360179634e-002,
          -1.3787573287531040e-002, -3.3108742585744498e-002,
          1.2254821876796532e-002, 1.7923545811358618e-002,
          -2.1839921151343353e-003, 1.3041198124329542e-002,
          2.1253557004379093e-003, 1.7920184041628449e-002,
          -1.7543140432139375e-002, -2.6688881555998901e-002,
          -1.4640218742239041e-002, -1.9917231404402921e-002,
          2.5786561854588996e-002, -1.9029818082505585e-003,
          1.8539033863901200e-002, -1.4602482602984452e-002,
          1.3396920067236607e-002, 4.0666312254673031e-003,
          -5.3982899129198825e-001, -1.4635191437253543e-002,
          3.2644822613851404e-002, -5.8085236127352537e-002,
          7.1953306305999123e-003, 4.0644400891023010e-002,
          -2.0064459044009244e-002, 7.6165633201206617e-002,
          9.2439254302361100e-004, 4.3714676317991280e-002,
          -5.5894256612069954e-002, -5.5731574250320166e-002,
          -4.4279935898733476e-002, -6.2911845586415160e-002,
          7.3480847136292785e-003, 3.1806638439657330e-002,
          -2.1110964042433719e-002, 2.7441595363432412e-002,
          3.7668674681036546e-002, 4.5107934445124329e-002,
          -5.0593260006397904e-002, -8.4128737760974626e-002,
          -4.2373092095768151e-002, -6.3874585859624480e-002,
          3.9787794598713205e-002, 9.8013094548451522e-003,
          1.0783466930166248e-002, -5.8115598712176954e-002,
          5.0879927048552050e-002, -5.2253704925658570e-003,
          -8.6702259064263576e-001, -6.2066864508223928e-003,
          4.2502167999549471e-002, -7.8698027356187833e-002,
          -6.3880124373187110e-004, 5.4814864339246490e-002,
          -3.7813926081852786e-002, 9.5365382862723030e-002,
          -9.4791263007135921e-003, 5.8912552486853884e-002,
          -8.4185261625273858e-002, -8.0540306853708221e-002,
          -5.7875246123282528e-002, -8.1498445827608818e-002,
          1.0644925132207186e-002, 3.1716397141135708e-002,
          -2.8121899273239673e-002, 5.6679028482735754e-002,
          4.3585997124069777e-002, 5.7983502227885661e-002,
          -8.3871514144271381e-002, -1.1307145191168914e-001,
          -6.6303633922407068e-002, -8.0562149258018440e-002,
          6.6586404008801225e-002, -4.7950161318258159e-003,
          3.3554734289948797e-002, -8.8166132294045560e-002,
          7.2423942806118483e-002, -1.2874958394120952e-002,
          -1.0861551415689803e+000, -2.4220598941833670e-002,
          5.8214810479190159e-002, -8.3257276830969201e-002,
          1.1544881719613495e-002, 8.2425461018188845e-002,
          -2.9699047560536890e-002, 1.2024224599420757e-001,
          -1.2506850168359247e-003, 7.4492412263879967e-002,
          -1.1178840647596314e-001, -1.1396894392036130e-001,
          -5.7394656458129981e-002, -1.0788512440707988e-001,
          8.6790369652129426e-004, 4.8849832602878757e-002,
          -4.5172482602202711e-002, 6.2172412074835960e-002,
          5.5457178836883760e-002, 7.0782131775976240e-002,
          -1.0181442741399022e-001, -1.2882290159431581e-001,
          -7.7672294227858707e-002, -9.0135839044186206e-002,
          7.6160033793925844e-002, 1.7068474533325191e-003,
          4.3351245295792977e-002, -9.9099521619555181e-002,
          7.8659003750102166e-002, -6.4614863163751186e-003,
          -1.2224201352031723e+000, -2.3134816718936947e-002,
          6.7403746924923097e-002, -9.1162669843543556e-002,
          -9.8439924322948514e-005, 9.2019011393342648e-002,
          -4.2932056122134112e-002, 1.3468805372188092e-001,
          -1.0421779050310811e-003, 9.7661303679766442e-002,
          -1.1827394503921973e-001, -1.2381993296496599e-001,
          -6.6997812338051299e-002, -1.1596473209215621e-001,
          -1.0261702757865556e-003, 4.5046414543576378e-002,
          -4.1473683154730004e-002, 5.9751891275410793e-002,
          6.1629070293798702e-002, 8.6225150876523160e-002,
          -1.0388073961719242e-001, -1.4246928886607663e-001,
          -8.9323744228107876e-002, -1.0618153328339153e-001,
          9.0522919129719617e-002, 2.9656912465593618e-003,
          3.4737133810731818e-002, -9.4945359509099242e-002,
          9.1023002383748705e-002, -5.5944079723955244e-003,
          -9.0400787264025639e-001, -1.1681890993371394e-002,
          4.0281415190701726e-002, -6.7901654202047523e-002,
          4.7144617521717438e-003, 5.5789515662192465e-002,
          -2.2487399513710735e-002, 9.2775361833988323e-002,
          3.7472252598676019e-004, 5.9845686588599012e-002,
          -9.0313906147059017e-002, -7.6671354745085782e-002,
          -6.0522775645394350e-002, -9.2197597889232236e-002,
          -4.7306724324582607e-004, 3.7089540371406819e-002,
          -4.7749599093276147e-002, 5.3022159541924456e-002,
          5.2075317321094231e-002, 5.2849832870581315e-002,
          -8.7497353814542336e-002, -1.1577323227661729e-001,
          -5.9028044315951982e-002, -8.7617111166338607e-002,
          6.6115098461664037e-002, -7.3984446218995316e-003,
          2.8647583375000049e-002, -8.3592552605114542e-002,
          7.9572266653252663e-002, -9.4436573974215649e-004,
          -1.2105633380276599e+000, -2.4688281106247028e-002,
          7.1590055053435450e-002, -1.0223953288583243e-001,
          4.4425931975484566e-003, 8.2861447103993999e-002,
          -3.6484079549211332e-002, 1.3682371918452577e-001,
          -1.9694167020814165e-002, 8.1938028597905804e-002,
          -1.1801484870816174e-001, -1.2086485036921837e-001,
          -7.4102690583738029e-002, -1.1254010850906783e-001,
          -3.7049506731817684e-003, 4.0105927984668180e-002,
          -4.5485782582773339e-002, 5.6094206955827085e-002,
          5.4423751657782383e-002, 8.0495240530957385e-002,
          -1.1224404274302487e-001, -1.4078696298353441e-001,
          -7.2819257902624376e-002, -1.1462456771867625e-001,
          8.4816917561262375e-002, 7.3450554772282904e-003,
          3.6707363496314080e-002, -1.1167077634230461e-001,
          9.8330843987357974e-002, -5.1110777935819262e-003,
          -1.2105631379648438e+000, -1.2656520846373360e-002,
          7.5133544057435858e-002, -9.9287533385163579e-002,
          9.9422371837634051e-003, 8.2828129766542719e-002,
          -3.5060367868264539e-002, 1.2709636818247444e-001,
          -1.5841454422474064e-002, 8.9075050604426873e-002,
          -1.0258593438339177e-001, -1.1993862304579009e-001,
          -7.1710045464278227e-002, -1.0805241029518424e-001,
          1.0054604190194045e-002, 4.9026322209356037e-002,
          -5.4967340860332815e-002, 7.2558941959107837e-002,
          6.6830718242780543e-002, 7.4386506233442437e-002,
          -1.0444192584159528e-001, -1.5123962480262357e-001,
          -9.1244709493820395e-002, -1.0655094640398381e-001,
          8.1798661624913921e-002, 6.8232884190725608e-003,
          4.3415784531952793e-002, -1.0241526272299513e-001,
          1.0189664731381612e-001, -5.4629626358776405e-003,
          -1.3808066505381715e+000, -2.2060943068684016e-002,
          8.1102484865059526e-002, -1.1940052363027084e-001,
          1.7685810185916577e-002, 9.4332338632558577e-002,
          -5.7166806569450078e-002, 1.5226052227595169e-001,
          -1.4351735831889798e-002, 1.1072363367464462e-001,
          -1.2306710341436952e-001, -1.3940275065057692e-001,
          -8.3489279242217121e-002, -1.2566412079844561e-001,
          -2.3960078021645890e-003, 5.8197065059375004e-002,
          -5.9208373187195643e-002, 8.3911839016030290e-002,
          8.0876613255318155e-002, 8.3762688774143140e-002,
          -1.3299851677084595e-001, -1.7412608208595903e-001,
          -9.1532835910587515e-002, -1.2109067619294780e-001,
          9.5960014600622007e-002, -7.8489213774944264e-004,
          4.0824021865182504e-002, -1.2170026932769695e-001,
          1.0391364006145372e-001, -2.0260103310582558e-002,
          -1.2991805000426642e+000, -2.6646467871361986e-002,
          6.3298870024249387e-002, -1.0071395113859058e-001,
          1.9726273584351867e-003, 8.3903057024648051e-002,
          -4.8116693072234977e-002, 1.3470854150521425e-001,
          -1.7601142790430634e-002, 9.2167570597164572e-002,
          -1.1507339611765247e-001, -1.2050580282875180e-001,
          -9.2062820485042315e-002, -1.2442263088301776e-001,
          5.9382416832865145e-003, 4.4850710477019787e-002,
          -5.1227378551696290e-002, 5.9279053275826721e-002,
          7.0107210138889098e-002, 9.1695289816032352e-002,
          -1.2304591179353017e-001, -1.7221732199376424e-001,
          -8.0265635893754642e-002, -1.2580767864741785e-001,
          1.0458252597141791e-001, 2.7720666272032591e-003,
          4.1378387103712368e-002, -1.1341608154195802e-001,
          1.0206820204572571e-001, -3.4080790864407864e-003,
          -1.2016766316644336e+000, -1.4026029774142175e-002,
          6.9587434023095626e-002, -9.0487699301335447e-002,
          8.2058986461905226e-003, 8.7997043484137533e-002,
          -4.3854832535128160e-002, 1.4027405872603155e-001,
          -1.6906606092642856e-002, 8.0344019518316198e-002,
          -1.0354477038075224e-001, -1.1690348742336279e-001,
          -6.3169167335302423e-002, -1.0225996830856265e-001,
          1.5878351284709597e-003, 3.9701492295190988e-002,
          -4.1580954604507135e-002, 7.0721289928014464e-002,
          7.2875750745216419e-002, 8.5920774365592367e-002,
          -1.1065532083151966e-001, -1.4676596519094917e-001,
          -9.1420027068717852e-002, -9.7622464849459842e-002,
          9.5532441627812770e-002, -8.2287598508363861e-004,
          5.0659766157530699e-002, -1.0925544883643114e-001,
          1.0164703285441345e-001, -1.4552494590298583e-002,
          -1.0920816401826572e+000, -2.4889809146787959e-002,
          5.8622099137799602e-002, -9.3754312696922137e-002,
          1.1621747284558847e-002, 8.3560821656829515e-002,
          -4.1734709618873427e-002, 1.2032240750374328e-001,
          -2.0244550026642539e-002, 8.9010212800095301e-002,
          -1.0874231489428392e-001, -1.1540517443309732e-001,
          -6.2760133546192906e-002, -1.1073177270377793e-001,
          6.7388261362316367e-004, 5.2808643500585881e-002,
          -4.7900370816074254e-002, 4.6827521569625948e-002,
          6.6979584189349822e-002, 6.4543866044377160e-002,
          -9.5870698906201091e-002, -1.4197620369858230e-001,
          -7.5461154444609629e-002, -9.3090059403876449e-002,
          8.5183495634058512e-002, 9.8341706975087328e-003,
          4.5485701242954805e-002, -9.9957189489913445e-002,
          8.8236891875180024e-002, -1.9243733297375980e-002,
          -1.0937888121600927e+000, -2.1860798508409662e-002,
          6.8153970651445586e-002, -9.5674291712963377e-002,
          8.0736935971189114e-003, 8.3556867653195893e-002,
          -3.7747493221989073e-002, 1.2631504690667991e-001,
          -3.7100778645146378e-003, 9.1285611438242237e-002,
          -1.0504401967036876e-001, -1.0652276947815420e-001,
          -7.9568618557223358e-002, -1.0875174427848756e-001,
          5.7489354952483043e-003, 5.3833698577810417e-002,
          -3.9169475471117876e-002, 4.8663105302730346e-002,
          4.8291335602106987e-002, 6.7486809420360297e-002,
          -1.0719634417656929e-001, -1.3524828261348365e-001,
          -6.5822036201516554e-002, -9.3380851826365824e-002,
          7.3999336596346804e-002, 5.4557634779975554e-003,
          3.7745775874363237e-002, -1.0481920947415996e-001,
          8.0619241731701943e-002, -4.3223870828345582e-003,
          -1.1677774305003203e+000, -1.2846937882639754e-002,
          6.4141724710734024e-002, -9.5580849555738548e-002,
          1.4616959014337443e-002, 7.4550089076409184e-002,
          -3.0231681175541470e-002, 1.3369897222589872e-001,
          -1.6534141727521691e-002, 9.7589818334215456e-002,
          -1.0411731855289652e-001, -1.2763218055481929e-001,
          -7.1648508080052978e-002, -1.1057194897223717e-001,
          2.2186838267223489e-003, 4.1810835712233846e-002,
          -4.4280899626672358e-002, 5.6906394889734375e-002,
          5.6491992159233402e-002, 8.4035275985295463e-002,
          -1.1980196706146255e-001, -1.5679493395839983e-001,
          -8.1532556024754024e-002, -1.1295315115101573e-001,
          8.5075904280977707e-002, 2.8894421598713526e-003,
          3.8092863357512219e-002, -1.1503974986837393e-001,
          1.0619290336518980e-001, -1.6128497441297122e-002,
          -1.2075889553707349e+000, -1.6063051380100786e-002,
          7.6245909204903525e-002, -9.1494175357775084e-002,
          9.9003530408735500e-003, 9.1965418233019014e-002,
          -4.5747280141611564e-002, 1.3462288568392947e-001,
          -6.6551660710880032e-003, 9.1704794894325148e-002,
          -1.1294584043687575e-001, -1.1003372724330597e-001,
          -6.5738550566323578e-002, -1.2532297045418869e-001,
          8.9193695434586478e-004, 4.5472719001468834e-002,
          -4.8201542444363220e-002, 5.2524335373313281e-002,
          5.4654807290140855e-002, 7.2941859783893059e-002,
          -1.1793453720400954e-001, -1.6286447449961675e-001,
          -8.8136890750540500e-002, -1.0632822634177552e-001,
          8.6298734006245284e-002, 8.0656084096951009e-003,
          3.2884150636487558e-002, -1.1481910806741781e-001,
          1.0369815529387354e-001, -1.8852188262768653e-002,
          -1.0254346201771889e+000, -1.7961603521531224e-002,
          6.7361374810739116e-002, -8.5824269784149337e-002,
          -3.4939680016421704e-003, 6.2689191629799287e-002,
          -2.9714328773826612e-002, 1.1369861517963629e-001,
          -8.8669470276167874e-003, 6.9103974944320107e-002,
          -9.4202381556677386e-002, -1.0236630527294382e-001,
          -5.5594946291084059e-002, -9.6773064774186263e-002,
          -3.7270127275003095e-006, 3.5824480497308318e-002,
          -4.1235278189453405e-002, 6.5268256264111729e-002,
          6.4123541022204786e-002, 6.9058145068396984e-002,
          -1.0156231803154703e-001, -1.4098782334231158e-001,
          -7.9015439677188826e-002, -9.4027164109163411e-002,
          8.9534204781504492e-002, -2.9414017301548200e-003,
          3.4362153620968325e-002, -9.3963541433847969e-002,
          7.5959234465656361e-002, -1.9142341750300718e-002,
          -6.1460353176844740e-001, -1.5648059591500695e-002,
          3.8645924459854528e-002, -4.4417650856696696e-002,
          -5.8630751502897864e-003, 4.6566188767608194e-002,
          -1.2045282915257242e-002, 7.1474291607290061e-002,
          -4.1874496021812114e-003, 3.9283259150905914e-002,
          -5.3440796402813615e-002, -6.8554782040960952e-002,
          -4.2547316363119939e-002, -6.6171343879887184e-002,
          -1.1434434366969263e-003, 1.9028255578204457e-002,
          -2.8652681897447428e-002, 3.8969369743162841e-002,
          2.8257165534466180e-002, 3.2454652221641726e-002,
          -6.4345076168990892e-002, -8.5876338023381155e-002,
          -4.1838748927187301e-002, -6.9324458630294683e-002,
          4.1546930903787152e-002, 3.7231906509972179e-003,
          1.6312628789240044e-002, -5.6289439946259671e-002,
          4.2697867102865585e-002, -6.8808922823449095e-005,
          -5.6821045663878278e-001, -1.2929502638909971e-002,
          3.4196958799102284e-002, -5.2585064660153967e-002,
          1.4998181823320285e-002, 4.1004096498581548e-002,
          -1.8156347209513517e-002, 7.6066906851563865e-002,
          3.2128729991732557e-003, 5.3234926489168034e-002,
          -5.8866733520734307e-002, -5.4890030788214042e-002,
          -4.1928410400902276e-002, -5.0187789401513999e-002,
          9.3210979542661509e-003, 3.1758378211565401e-002,
          -2.9992917225942856e-002, 3.9378437968507894e-002,
          4.0662107259385682e-002, 3.8142846366716179e-002,
          -6.1003637282793503e-002, -8.4191844489784687e-002,
          -3.6561266091850252e-002, -5.3821034341976201e-002,
          5.3886187509082605e-002, -4.6938634879067761e-003,
          1.4509699363925530e-002, -6.0296528913720795e-002,
          4.4890765964542542e-002, -4.2102546451159850e-003,
          -3.2363565864063354e-001, -1.2827735198862315e-002,
          1.5279053402151941e-002, -3.3256103129882905e-002,
          -5.0011039145547772e-003, 2.5076128656181720e-002,
          -1.8903791419041829e-002, 4.2103221648816205e-002,
          8.6808520212085811e-003, 3.2372428520253710e-002,
          -4.0961596144900254e-002, -3.3030565250836932e-002,
          -2.5526454276336305e-002, -3.0262522686203081e-002,
          -4.8693769632465840e-003, 1.3573133201529728e-002,
          -2.6127015353828290e-002, 2.0138425083150936e-002,
          1.2748484823007914e-002, 1.5041204084566721e-002,
          -3.1163023559310835e-002, -3.7709626939351336e-002,
          -2.4874372223100679e-002, -2.0962855561553508e-002,
          1.8428294624575788e-002, -6.4073549541049414e-003,
          1.8967069547716712e-002, -3.0512948856896489e-002,
          1.8235892553231832e-002, -1.2590928428898571e-002,
          -5.0748412353033878e-001, -1.5598620376629615e-002,
          3.4775872844131042e-002, -4.1597681807540587e-002,
          1.1794284794793446e-003, 2.9162836652877829e-002,
          -2.2559323667584761e-002, 6.0477126841015395e-002,
          -5.8386855916568387e-003, 3.1887140603048370e-002,
          -3.5897231912893963e-002, -4.4274542612566935e-002,
          -4.1204387168242873e-002, -3.4942672013777605e-002,
          -4.2903852670955868e-003, 2.8480074338455175e-002,
          -1.7268769212791302e-002, 1.8254362202546403e-002,
          3.1742653581679506e-002, 3.2161932464220687e-002,
          -3.8951521549180315e-002, -5.8832484764111286e-002,
          -2.8341634123535353e-002, -3.9746831559608613e-002,
          3.1223457185709819e-002, -4.6799208305289041e-003,
          9.6637589981612964e-003, -5.4107410867865052e-002,
          4.0966200158788255e-002, 4.6314447213212512e-003,
          -5.0010897227572304e-001, -1.6279892619002072e-002,
          3.0884744694704074e-002, -4.3974747785873611e-002,
          6.7951932477466866e-003, 3.0445805886970989e-002,
          -1.9211061109854582e-002, 5.4589205806132857e-002,
          -4.0006072006673913e-003, 3.9246232438118235e-002,
          -5.4566766048989850e-002, -4.2050601210601356e-002,
          -3.2474243804399089e-002, -5.5453980312441330e-002,
          8.4725943441189226e-003, 1.7904321986883995e-002,
          -2.9553078148571527e-002, 2.7063396867748876e-002,
          2.6273445507898542e-002, 3.3325937713618720e-002,
          -4.0033543564011301e-002, -5.2695209888618082e-002,
          -4.0671186419923733e-002, -5.2529176058838681e-002,
          4.3179769873947609e-002, 2.9389562859829478e-003,
          2.4016376639241672e-002, -4.3102913971931195e-002,
          4.2823573716616270e-002, -1.4445579685055924e-002,
          -9.1271811320230789e-001, -2.2389083459406864e-002,
          4.5024873696057559e-002, -8.2472532851445832e-002,
          1.6984276948572304e-002, 7.3128288865663277e-002,
          -3.2641836401491126e-002, 9.8800134367864625e-002,
          -1.4423159285450663e-002, 6.7922652556648477e-002,
          -8.3957479004251032e-002, -1.0335431270238624e-001,
          -6.0238420392237986e-002, -9.6122520036120693e-002,
          3.3941937582867201e-003, 2.8937400213217675e-002,
          -3.3887243493809914e-002, 4.9375226778140859e-002,
          4.3356985288129979e-002, 5.3353137338677803e-002,
          -7.8787791014192810e-002, -1.1689660325583616e-001,
          -6.7552149557995086e-002, -9.3912831872839220e-002,
          8.0763170697398384e-002, 1.0818309063232682e-005,
          2.6566744087464966e-002, -8.3161250183713009e-002,
          7.8022048930249152e-002, -7.6152480376755543e-003,
          -6.7684055975779878e-001, 1.0484692375212325e-003,
          3.3700693038883268e-002, -6.0746380612085080e-002,
          -4.5453176371031584e-004, 5.6439693153381099e-002,
          -1.4780607093560770e-002, 6.8176709867184604e-002,
          -1.0066306704352957e-002, 4.6398380181776416e-002,
          -6.1036543860044215e-002, -7.7177116536800511e-002,
          -5.0114720240272935e-002, -5.7292047993569524e-002,
          -2.9151050870692792e-003, 2.8819883956780899e-002,
          -3.0098072943153177e-002, 3.1383962109341766e-002,
          2.8249978817289675e-002, 4.7905690773309709e-002,
          -7.3542587744235777e-002, -9.4174760082739215e-002,
          -5.1828826006358783e-002, -6.0084770535771971e-002,
          5.0425379925599957e-002, -1.0092814777602458e-002,
          2.4522281417159720e-002, -5.8447858313410969e-002,
          6.0858598465932522e-002, 1.6799115795253488e-003,
          -6.4151467083084979e-001, -5.9526728206168739e-003,
          2.8036442817953325e-002, -5.0879766707461062e-002,
          -5.8845570337913650e-003, 5.4407003021361054e-002,
          -1.9869401854482386e-002, 7.6842658148487675e-002,
          -1.1954229158069763e-003, 5.6773922964607239e-002,
          -5.7714429007481596e-002, -6.2716266458170744e-002,
          -3.8106267887500940e-002, -6.5043171803601280e-002,
          8.2148397839268573e-003, 3.1600755238065395e-002,
          -2.9955376978890072e-002, 2.7200823249603635e-002,
          3.3987487425965628e-002, 4.8527310787002453e-002,
          -6.7978452036221576e-002, -8.6220450670415172e-002,
          -4.1489504752196080e-002, -6.5159457187825773e-002,
          4.3834486877151982e-002, 3.3199559775582426e-003,
          2.4065851551512731e-002, -6.4899739407099796e-002,
          5.6276361463980053e-002, -9.2018258183026273e-003,
          -6.4370225178885287e-001, -2.6533761077844960e-003,
          2.6250148215805770e-002, -5.8971713668876019e-002,
          3.0715308656334519e-003, 4.0039397947307098e-002,
          -1.0836997928465391e-002, 6.6388399848392177e-002,
          -1.3620228439738626e-002, 4.2974293037294671e-002,
          -7.5131921959734366e-002, -6.3845517860841805e-002,
          -5.2524105493059019e-002, -5.4759512107726643e-002,
          -5.2827958524860842e-003, 2.7867990566034555e-002,
          -3.7540672263833744e-002, 3.7016164823886061e-002,
          2.7348095016349046e-002, 4.6903795855780445e-002,
          -6.9978611223104073e-002, -8.7447931404677673e-002,
          -5.1347050083411491e-002, -5.1767824196518215e-002,
          5.4533463266607143e-002, 7.7833208656776084e-003,
          1.6250966154327574e-002, -5.8143927078426735e-002,
          4.5223175404631048e-002, -3.6898553698225641e-004,
          -8.8314387826140017e-001, -2.6777459956629775e-003,
          4.0866362510056417e-002, -7.9975976495497481e-002,
          1.0474256491499190e-002, 6.9498458748186706e-002,
          -2.9464074073407398e-002, 1.0738059182810400e-001,
          -6.6208576480294365e-003, 6.6434873016147367e-002,
          -7.6335084779127288e-002, -8.3763995508685365e-002,
          -4.7173807636061375e-002, -9.5277273776454743e-002,
          -1.5389356149998043e-004, 3.7413594214663073e-002,
          -3.5750337612916593e-002, 3.9320113888003543e-002,
          5.3638164670702544e-002, 6.4416296711321194e-002,
          -8.6667596307508796e-002, -1.0331855757914994e-001,
          -6.3096172851867000e-002, -9.1420545327780503e-002,
          5.8742671139686710e-002, -4.3977520534543872e-003,
          4.1587808573778681e-002, -8.4452413907733254e-002,
          6.5166795272241881e-002, -9.2201801453796143e-003,
          -6.7567680807579678e-001, -1.6863919198639776e-002,
          4.2316865075819388e-002, -4.6827921073038174e-002,
          -2.3619255037315525e-003, 5.4300893730238914e-002,
          -3.3936755956187434e-002, 7.4647920138692508e-002,
          -1.6413569235466847e-002, 6.0496181028405149e-002,
          -6.2207163057603633e-002, -5.9922669442081557e-002,
          -4.6151683359921668e-002, -6.0473628129952495e-002,
          9.7258416479452988e-003, 1.9909066786232527e-002,
          -3.1366041717700376e-002, 3.6924044300857842e-002,
          3.6113728894213937e-002, 5.4581151601423482e-002,
          -6.1602477939501854e-002, -8.9253877446019952e-002,
          -3.8941318730545744e-002, -5.3854404242459138e-002,
          5.0902485953084310e-002, 2.1894472989119947e-003,
          2.5029914745903575e-002, -6.3740906329819547e-002,
          4.6489703252276283e-002, -1.4416654024155465e-002,
          -5.2032356346688358e-001, -1.6546466567571444e-002,
          2.0542130419808850e-002, -4.9049672138461724e-002,
          4.5963059260639913e-003, 3.9856371234812518e-002,
          -1.1655963246754254e-002, 5.3197006951919069e-002,
          -4.2558999390777110e-003, 4.2009204404233509e-002,
          -5.9210200764637434e-002, -5.4316951870814950e-002,
          -3.1647887321177598e-002, -3.8658615838295676e-002,
          9.8701400710112640e-003, 1.8920830021333761e-002,
          -1.5416485746501681e-002, 2.3916024010662906e-002,
          2.1152311906440263e-002, 3.7004581129963424e-002,
          -5.0632269253908700e-002, -5.1666709557997202e-002,
          -3.2329806790916613e-002, -5.1971006299932038e-002,
          4.4008821978609711e-002, 4.0151468559575416e-003,
          2.0470780016866880e-002, -3.5499342236426513e-002,
          4.4296516793436665e-002, 2.7368286183476489e-003,
          -5.6136124074606397e-001, -9.0029769792925058e-003,
          3.0510026424276335e-002, -5.2201719267063906e-002,
          4.4518324743440269e-003, 4.1476759555807798e-002,
          -1.4923138107835316e-002, 5.3390151933456947e-002,
          -5.8098354727204697e-003, 3.7591634061805108e-002,
          -5.7431684150577415e-002, -4.7670118362217406e-002,
          -3.5412010667125841e-002, -4.3286408326313794e-002,
          5.1870760316731802e-003, 1.5597526173289918e-002,
          -2.5469801865788413e-002, 2.7230690643222588e-002,
          3.5760563717176959e-002, 4.1772504195779082e-002,
          -6.1027526623292520e-002, -7.4744019889919661e-002,
          -3.3281900656294355e-002, -4.8016512295102530e-002,
          4.2436618567143425e-002, 9.7877239970576065e-003,
          3.1371101231014040e-002, -5.4005577616528709e-002,
          4.3573178432175105e-002, 4.1856584638925243e-003,
          -8.1545253053483924e-001, -1.0953128971110337e-003,
          4.6642640598148356e-002, -7.0571968474649929e-002,
          -5.7251667292935685e-003, 4.9178164461054545e-002,
          -2.6116980157860164e-002, 8.6237478902009640e-002,
          2.3483455877741635e-003, 6.5373831315987202e-002,
          -7.1559595474345983e-002, -6.9649484970208883e-002,
          -5.1696354847621251e-002, -8.8620975998024223e-002,
          -4.7647938340735207e-004, 2.3575120186858950e-002,
          -2.5281867676168988e-002, 5.1974803606415459e-002,
          3.8754250416075137e-002, 6.2010011056413267e-002,
          -6.8995689829427817e-002, -1.1094520798765783e-001,
          -5.7510445458121569e-002, -6.7334796756841592e-002,
          6.0807733099700750e-002, -5.0072370505182670e-003,
          2.6270482594932098e-002, -7.0020360144380636e-002,
          6.7132123866285615e-002, -1.4200644274804459e-002,
          -8.2389706022174125e-001, -2.0581670456767828e-002,
          4.2613931629559579e-002, -7.0787391040378303e-002,
          1.4295833493601514e-003, 4.6682154085565086e-002,
          -3.0023819935367808e-002, 9.8201750146846511e-002,
          -1.1917834528538769e-002, 6.6699520044757710e-002,
          -8.1858345682115627e-002, -7.1386726013358909e-002,
          -5.2657023373257748e-002, -7.6317395064312760e-002,
          1.4900094778789176e-002, 4.0381543359769255e-002,
          -3.3995169559013855e-002, 4.6004271118231313e-002,
          4.6493282780533260e-002, 6.0904536433129527e-002,
          -8.1017915609622682e-002, -1.1433785688767406e-001,
          -5.1520808798609076e-002, -8.1463420163244218e-002,
          5.8462582522798116e-002, -9.6418407713549513e-004,
          3.8619275941232968e-002, -7.3897677987997970e-002,
          6.9216832493339736e-002, -4.2103678823812761e-003,
          -8.1737565689778269e-001, -4.5989834639417627e-003,
          5.1157357444841470e-002, -6.3436040862642470e-002,
          6.7578869562356708e-003, 6.1050356930141852e-002,
          -3.1687275934403021e-002, 9.6275681624741372e-002,
          -9.7161908646874323e-003, 5.1354878201380003e-002,
          -9.0336135595554687e-002, -7.1545639353065141e-002,
          -5.9646093946752278e-002, -7.0946931138186245e-002,
          -2.4723683986962474e-003, 3.3438069996367781e-002,
          -3.5473301971750484e-002, 4.2067021319433157e-002,
          3.3749962139052556e-002, 5.6872169379657486e-002,
          -8.4301070774722139e-002, -9.5758250784863427e-002,
          -5.1456554958691593e-002, -7.8733446105036978e-002,
          5.7266117995918631e-002, 1.4386851954279454e-003,
          2.1954427950334612e-002, -7.5400213259851703e-002,
          6.0366729479946098e-002, -6.2999234438389012e-003,
          -5.7173917975941035e-001, -3.5839532489636700e-003,
          2.3097372156062494e-002, -4.1205658087456354e-002,
          -4.7563075930226583e-003, 4.7128531487985702e-002,
          -1.4668405828821765e-002, 6.7388095995073588e-002,
          -7.0923001836630016e-003, 4.6450127080954522e-002,
          -4.2465843480351324e-002, -5.2499129294661009e-002,
          -4.0484196869212487e-002, -5.7272631642043895e-002,
          6.9469573464701704e-003, 1.9551940603134210e-002,
          -1.8802503828430767e-002, 1.8926007246463247e-002,
          2.3728829964880935e-002, 4.1692492416081049e-002,
          -6.0355159040790717e-002, -7.5468735578189478e-002,
          -4.5275111805659900e-002, -5.0638920998467674e-002,
          4.9154262450248946e-002, -7.6651511798564911e-003,
          1.9761699008856912e-002, -4.2682188666162711e-002,
          3.9528039214268236e-002, -1.0471996737361444e-002,
          -6.7558565292000650e-001, -1.7541162247543707e-002,
          3.4919751488493057e-002, -4.8271528896994570e-002,
          8.8481280368291962e-003, 5.4226203910043236e-002,
          -1.8065865409254488e-002, 7.3640793795060985e-002,
          1.9295575086652719e-003, 5.5862049136139055e-002,
          -5.3277861718533596e-002, -6.0520236733216347e-002,
          -3.9388439308773400e-002, -5.2177505265970842e-002,
          -3.7305433732310210e-003, 1.7879520810990059e-002,
          -2.1207799048476576e-002, 2.9894916166347936e-002,
          4.2383424335811645e-002, 4.0250029527107468e-002,
          -6.8538890193841531e-002, -7.5737051697412072e-002,
          -5.2357401893496198e-002, -5.1868364549340136e-002,
          5.7712656851712327e-002, -8.9016659255208857e-005,
          2.6486670045574184e-002, -6.7153670006300459e-002,
          4.2037659652773410e-002, -3.9937321507386167e-003,
          -4.0359971573141568e-001, -9.2666138298572211e-003,
          1.1563441362993468e-002, -2.1464487160281823e-002,
          -3.7897988339282520e-003, 1.8450811068076056e-002,
          -5.4678966180602218e-003, 4.0111612506920177e-002,
          6.2803356863028788e-003, 3.2050725360160591e-002,
          -2.8911476868096815e-002, -3.9695417898429987e-002,
          -1.6596237380539437e-002, -2.5710511275599094e-002,
          -7.6981867040512466e-004, 2.4698029842253666e-002,
          -2.0650059904698259e-002, 1.4966083554653004e-002,
          1.1004081138236102e-002, 2.5894832497069937e-002,
          -3.1906421555082096e-002, -4.9684308334501388e-002,
          -1.7484674662589437e-002, -3.1059118944124626e-002,
          2.0837829024387074e-002, -1.8588907190031387e-003,
          8.2340969701850380e-003, -3.9765212725932912e-002,
          3.5686732721914721e-002, 4.0222539869279499e-003,
          -3.3164870316905920e-001, -1.3218685989148311e-002,
          2.3463932613382837e-002, -2.8605577052518361e-002,
          3.9360958455032964e-004, 3.1520611373432768e-002,
          -1.4839941760337767e-002, 3.1998945327108078e-002,
          6.7176039958297866e-003, 2.5320938969803707e-002,
          -2.5472571860426372e-002, -2.5245788440788220e-002,
          -7.8225559962141842e-003, -2.5523171100715850e-002,
          8.8512650065394726e-003, 9.5396850573266391e-003,
          -2.2381282284638888e-002, 1.8154324227145260e-002,
          1.2586763492667232e-002, 2.2565136580429284e-002,
          -2.1168678374458291e-002, -2.2882407585359310e-002,
          -1.8963986158349707e-002, -2.9037256246220163e-002,
          2.1413774845706904e-002, -8.3865229304488278e-003,
          1.6816346837812215e-002, -1.6093978539181538e-002,
          2.8228698739394372e-002, 5.3390472737692852e-004,
          -1.1178538765851150e-001, -5.5143247847608701e-003,
          1.5233135581432593e-002, -1.0381937138417697e-002,
          -9.8804211256324492e-003, 8.4967300873715762e-003,
          -2.4123154987814922e-003, 1.6493558318067668e-002,
          1.0184537291907457e-002, 1.5427092600368704e-002,
          -1.8224359653278798e-002, -1.1031467257531614e-002,
          -7.9525219673537307e-003, -1.6459396380465331e-002,
          3.4754220734798296e-003, 3.6108179984453161e-003,
          -2.5841149729262738e-004, 1.4482245072593859e-002,
          1.4556732615910634e-002, 1.3951555982185785e-002,
          -1.4470997943007689e-003, -2.4091845128222911e-003,
          -5.5806626313433180e-003, -1.1019726903067248e-002,
          -3.5155036707731225e-003, 5.8886844247380546e-003,
          1.1429966487585834e-002, -9.1920576620378846e-003,
          1.0124946351495676e-002, -1.0788949811690630e-002,
          -1.3658577165608729e-001, -6.5175311258462258e-003,
          3.7506243170476947e-003, -9.5430268174817295e-003,
          4.6892661982769696e-003, 1.1571313173195088e-002,
          5.8157180898011293e-003, 2.1608578054631688e-002,
          3.0321104773676725e-003, 1.5939773225367351e-002,
          -9.7614362356373292e-003, -1.1685422280954086e-002,
          -1.4888244265089445e-002, -3.5536357337076110e-003,
          -4.8953273573018527e-003, 8.8674188140895286e-003,
          2.3032377667199250e-003, 1.2483218776115645e-002,
          9.6049767993373735e-003, 2.3439192275053240e-005,
          -1.5618734353892272e-002, -8.1241620550555130e-003,
          -2.0429430735183551e-002, -2.7977488885738287e-003,
          8.8897857330645074e-003, 8.4664331108891683e-003,
          7.6660092416001892e-003, -1.0339042903908942e-002,
          5.5603748345521078e-003, -1.6346696794698847e-003,
          -3.2352544177779197e-001, 4.9974944235653433e-003,
          1.4868931622703278e-002, -2.6409416140142625e-002,
          -1.2520655528758078e-003, 2.4333680178911386e-002,
          -1.1322888389813339e-002, 3.2640995869240644e-002,
          -8.2328084154379439e-003, 2.9023011078983793e-002,
          -3.2055103883811713e-002, -3.5204305165998810e-002,
          -2.6214986578699098e-002, -2.0681769682697124e-002,
          3.9258800437831339e-003, 6.8909944354402309e-003,
          -2.4736141073510243e-002, 2.0429960687351655e-002,
          2.5341653120394051e-002, 3.0962109853332052e-002,
          -3.0032493609040676e-002, -3.7698288670556968e-002,
          -1.5940780560819070e-002, -2.0116263536333057e-002,
          2.2360127850497104e-002, -8.3370351416988866e-003,
          2.2068674571316300e-002, -3.4117702175443819e-002,
          1.8843020368967626e-002, -1.1187970581350725e-002,
          -3.7720970141227927e-001, -1.3229409018124602e-002,
          1.2269512895181054e-002, -3.9387125969071977e-002,
          -4.8893288610017457e-003, 3.2111424769782515e-002,
          -3.8520925846644125e-003, 4.1333016743874129e-002,
          -2.3789546447101130e-003, 3.0523335970306580e-002,
          -4.1815924863315278e-002, -3.4301707200705002e-002,
          -2.3800311686180430e-002, -2.6758100403063218e-002,
          7.3894928141607884e-003, 7.7238845231073902e-003,
          -1.1622786784548537e-002, 3.0782091136764896e-002,
          1.7056769252696148e-002, 2.5121622817398537e-002,
          -2.6684334113958933e-002, -6.0260268285929640e-002,
          -2.3406150689661131e-002, -4.1381663563355230e-002,
          2.1646195062328122e-002, -1.0220897866006967e-002,
          2.1214745547286907e-002, -3.5725060788755710e-002,
          3.8976663540191948e-002, 3.7090478309626403e-003,
          -5.9816883300360302e-001, -1.6284403704201745e-002,
          3.7938707953054276e-002, -4.2018821088008917e-002,
          1.4615215648009605e-002, 3.0169461072615353e-002,
          -2.4240859284027139e-002, 6.8526153041776172e-002,
          -1.0667679096014656e-002, 5.0315560858611261e-002,
          -6.4391546294873703e-002, -5.6698047475136813e-002,
          -4.7119019713106246e-002, -5.6024849841617735e-002,
          1.6664603822748859e-004, 2.2490695039820433e-002,
          -2.7475634495314014e-002, 2.8853664587233721e-002,
          3.4557307403341980e-002, 4.7456530152573596e-002,
          -5.4047771646625262e-002, -6.6588703942429661e-002,
          -4.3649099493597944e-002, -4.9532189338222593e-002,
          4.3270064862214429e-002, -4.4628486528784338e-003,
          2.6966395639914834e-002, -6.0110013304963017e-002,
          4.1426213518409805e-002, -1.9718319525772765e-003,
          -5.5282672517377740e-001, -1.4833036237007245e-002,
          2.7510152711559453e-002, -3.8866618888518223e-002,
          8.1112534376030724e-003, 2.9071435545428945e-002,
          -1.9239910745919245e-002, 6.4480904265426159e-002,
          -1.1394284426694467e-002, 3.6851162357141247e-002,
          -4.2516968954178808e-002, -5.2308761382885538e-002,
          -4.0923044896554225e-002, -5.5321623153159472e-002,
          -9.6420498057460792e-004, 2.8722875843659981e-002,
          -3.0285745780277325e-002, 1.9395512645465105e-002,
          3.8351671497669312e-002, 3.9058787467691453e-002,
          -5.6185008083495525e-002, -6.5553026159331521e-002,
          -2.9453412368898022e-002, -5.5691471570003280e-002,
          3.6752727592526319e-002, -1.5237766788086986e-003,
          1.7660879942401106e-002, -5.4032396487391381e-002,
          4.8728570806448455e-002, -6.2952804726309599e-003,
          -6.0428595174179611e-001, -1.6324399170852166e-002,
          2.3422928793537242e-002, -4.1986785414233306e-002,
          1.4387372450799546e-002, 3.5361133283385887e-002,
          -2.9443835570252444e-002, 6.1038466725650539e-002,
          1.5794697544721759e-003, 3.9623096846187145e-002,
          -6.1740605255110728e-002, -6.2976814570973760e-002,
          -4.3783251754397214e-002, -6.8335288960653426e-002,
          8.7558771361952951e-003, 3.0689283954282609e-002,
          -1.8177685430963139e-002, 3.4764601312923700e-002,
          3.9362979396361637e-002, 3.1593783517223729e-002,
          -5.5010446960179114e-002, -7.3039721937808708e-002,
          -4.8585737295411068e-002, -6.2809461558127166e-002,
          3.6313249941674078e-002, -8.7759304267594658e-003,
          2.1388974190654570e-002, -4.6829204298163042e-002,
          4.0389721051127807e-002, -1.2026889233912137e-002,
          -5.5995314526793083e-001, -1.7799499408137066e-002,
          3.4257597548652582e-002, -3.9848192202720935e-002,
          1.5698871754779662e-003, 3.6111497171230383e-002,
          -2.2621469019661566e-002, 5.5713887976593289e-002,
          -8.5268138948230900e-003, 3.7280466871983005e-002,
          -5.2333951952419258e-002, -4.7027046242433264e-002,
          -4.3946840255479333e-002, -5.4809220683091117e-002,
          -5.2324906118651673e-003, 1.7376263258534450e-002,
          -3.1067996454502818e-002, 2.6405905238484809e-002,
          3.9841391497858022e-002, 4.1353206146484411e-002,
          -6.2971793531953257e-002, -8.2122537846415614e-002,
          -3.9154042273422125e-002, -5.0811793735801372e-002,
          4.0590599983853670e-002, 5.7968308263886392e-003,
          1.4444454580258333e-002, -4.8369747315094268e-002,
          4.0020176247517150e-002, -3.1985990157707262e-003,
          -4.4343388010590440e-001, 4.6273101635461115e-003,
          3.4612942972324985e-002, -4.2985085864709470e-002,
          -2.4935952703804639e-004, 2.6946168604393386e-002,
          -6.9264284591601492e-003, 4.0643211641566486e-002,
          -9.6979815249967436e-003, 3.5865138744908001e-002,
          -5.2491513818418871e-002, -3.6441379740642099e-002,
          -2.1049441850467327e-002, -3.9888250863387716e-002,
          -5.1478123704270431e-003, 1.5362571821943187e-002,
          -1.0417741937224521e-002, 2.2957818356349368e-002,
          2.6974629428138303e-002, 3.6934482490300707e-002,
          -4.4261581203544328e-002, -5.4750488717012762e-002,
          -2.9599092169012797e-002, -3.6975659848604986e-002,
          4.2534949448853998e-002, -1.1496591923020247e-002,
          1.7690794401438205e-002, -4.1834954972673803e-002,
          3.9650469740475057e-002, -6.9541748498340335e-003,
          -3.3913654707022911e-001, -1.4025873206710072e-003,
          9.2866334185355403e-003, -3.4461557115142406e-002,
          -4.6700419743193012e-003, 2.6132420212126934e-002,
          -1.0435238676582888e-002, 3.5034610923009066e-002,
          6.9146673535535148e-003, 1.9966204485799843e-002,
          -3.3417305997893956e-002, -3.5171912880098841e-002,
          -2.1944287795251413e-002, -3.6246241766619627e-002,
          -7.8232817272368149e-004, 2.0256506635241978e-002,
          -1.5867800412560484e-002, 2.1601985444050859e-002,
          2.4308266306874861e-002, 2.7957558992402893e-002,
          -4.0234814674531341e-002, -4.8636557520120124e-002,
          -1.9627356921019520e-002, -2.7261708634616848e-002,
          3.0988911624431525e-002, 7.7245042914025298e-003,
          2.6370411970447370e-003, -2.3452929565382849e-002,
          2.9834594130679813e-002, -7.2959358826780365e-003,
          -4.0464357266128231e-001, -5.7718688808666256e-003,
          1.4090665363666892e-002, -3.6547644148790422e-002,
          6.3251939735343606e-003, 2.6164194547266692e-002,
          -5.8720414049403336e-003, 6.2000384317159117e-002,
          -4.8732462580367864e-005, 3.9976615016612947e-002,
          -3.5941915662191050e-002, -3.6080193720134400e-002,
          -2.3707110747227939e-002, -3.9345023695190474e-002,
          -2.6621940384431914e-003, 2.5278826775590901e-002,
          -1.0394804829246974e-002, 2.4043795633268115e-002,
          3.1117309387813222e-002, 3.3040953932272424e-002,
          -3.5043909630757222e-002, -5.2988900733959066e-002,
          -2.7130320830502323e-002, -3.8862959840925311e-002,
          3.2527543712869526e-002, -5.5637824830090240e-003,
          1.8746249987249469e-002, -3.0045727017193411e-002,
          3.4948642869344924e-002, 2.1978121551987518e-003,
          -4.8217488592960261e-001, -1.0896426270054820e-002,
          3.5336783155999085e-002, -4.2420978392147556e-002,
          -5.6494840809518509e-003, 3.1213452881192327e-002,
          -2.2738984883903135e-002, 5.4132926521460831e-002,
          -6.5898108062559715e-003, 4.6619034779901515e-002,
          -4.8911546349003236e-002, -5.1240415866807547e-002,
          -3.6888161173791047e-002, -5.1302992408569455e-002,
          6.9825910070730008e-003, 2.8576257657603334e-002,
          -1.6500259059706042e-002, 1.9795438292495145e-002,
          1.8141135852708289e-002, 2.3295134900423300e-002,
          -5.6748572335732640e-002, -7.3083796662688341e-002,
          -4.7129176632758410e-002, -3.9389639447124682e-002,
          4.1485190873876573e-002, -3.3335457432137319e-005,
          8.9937895399587412e-003, -5.1847292441924341e-002,
          3.8913361433905440e-002, -1.3872829816365074e-002,
          -5.1216030170636417e-001, -1.1421555137144717e-002,
          2.6286511187271509e-002, -3.5786007218770774e-002,
          1.1790433352270943e-002, 3.9554274605660501e-002,
          -2.6204903574073499e-002, 5.5288981495914769e-002,
          -1.2687084638580605e-002, 3.7647736939296371e-002,
          -5.6395470368133693e-002, -5.0310741769711877e-002,
          -3.4196806971966559e-002, -4.7364569911870831e-002,
          2.6050412899774086e-003, 1.5198573718487131e-002,
          -1.3015691782259604e-002, 2.8344072302695655e-002,
          2.0894044942171335e-002, 4.3295614312737554e-002,
          -5.2218000416481052e-002, -7.1720290953999358e-002,
          -4.6216673607069846e-002, -4.1394692000159987e-002,
          5.0285445998772417e-002, -1.1919189994040118e-002,
          1.0143169810965639e-002, -5.0889494702358214e-002,
          4.7343346575096652e-002, -3.4821287165256580e-003,
          -3.8864396091248449e-001, -1.1046137976657470e-003,
          3.2112333717162447e-002, -2.8023110299068166e-002,
          1.3388169340390865e-002, 3.6674505095681369e-002,
          -9.0781598302087547e-003, 4.1810495141381999e-002,
          6.9153536774086847e-003, 3.1850281177385517e-002,
          -4.2571011565733181e-002, -3.5747108693698196e-002,
          -1.8765703985002661e-002, -3.4640860366610939e-002,
          -2.6415535358806806e-003, 1.7792130146096249e-002,
          -1.8664999959395051e-002, 2.4836764467516686e-002,
          3.0681793550293365e-002, 2.8028219356057347e-002,
          -4.7426804875098622e-002, -6.1370406601636875e-002,
          -3.8369543349094551e-002, -5.0705226782581103e-002,
          2.0945577661997918e-002, -4.4752116211732654e-003,
          9.8779759273149009e-003, -3.6020882580643183e-002,
          3.4109705877657090e-002, -8.3300255008111855e-003,
          -3.1150240562256076e-001, -7.9774617054580877e-003,
          2.6963965941187423e-002, -3.3019111718446098e-002,
          5.5453036832438926e-003, 2.0390213423739988e-002,
          -2.1495982715105059e-002, 3.8044474500514777e-002,
          -1.1384827603982733e-003, 3.6253850828460929e-002,
          -2.8804472661630533e-002, -4.2282078323095440e-002,
          -1.4979941640614513e-002, -3.2462228915733526e-002,
          9.7930779404961903e-003, 2.0236180940482951e-002,
          -1.4471877007403199e-002, 1.9273504609412059e-002,
          1.4144169803997391e-002, 1.4142213369494379e-002,
          -3.3174516246658035e-002, -4.7963838773160405e-002,
          -3.4373578082603495e-002, -2.7930624509009155e-002,
          2.2726011936119325e-002, 9.6057085993553001e-004,
          1.8540715006785145e-002, -4.3758864264398435e-002,
          3.8239856569145060e-002, -1.4184130872143699e-002,
          -9.0009687182781850e-002, 8.1968108419158987e-003,
          4.2698231892567672e-003, -1.3458477304921590e-002,
          -1.9005156208077413e-003, 1.1720257508460034e-002,
          -3.3590616333458150e-003, 1.6916985281175481e-002,
          2.5733898881796337e-003, 1.4104635957839191e-002,
          -2.1334612169259373e-002, -1.0388501648297533e-002,
          -6.0165172095657847e-003, -1.4893455441698804e-002,
          -4.3893752393717308e-003, -3.9141491042186076e-004,
          -1.5384740978754521e-002, 1.0424793992286447e-002,
          -3.3349996476600766e-003, -1.4695357126374873e-003,
          -1.3725610550089076e-002, -1.5676217993845935e-002,
          -6.7515939807486153e-003, -1.6228367535531817e-002,
          1.5701473006563074e-002, -5.7672771722553666e-003,
          1.3455013217162806e-003, -9.0245176290425569e-003,
          4.6318354956623019e-003, 1.1959215543079489e-003,
          -1.5057473583107123e-001, -1.1635080045140016e-002,
          7.1987902768851720e-003, -8.2386376423607254e-003,
          5.1786215397301915e-003, 1.2309119365221574e-002,
          -7.2287723520473505e-004, 1.9847445791311990e-002,
          -3.3989924327796321e-004, 1.5912915196586590e-002,
          -2.9352398267685199e-002, -2.5406532683459215e-002,
          -2.7701876946027611e-003, -2.4780411111641646e-002,
          -4.6868937847043771e-003, 1.3013802996719524e-002,
          -5.6563119230612280e-003, 1.8436984820291347e-003,
          2.3441142372498417e-003, 9.6548770130868763e-003,
          -2.9918286708716532e-002, -3.5093507859521957e-002,
          -1.9503477716708819e-002, -1.8148476068225290e-002,
          2.4940715543503474e-002, -3.7080941254286444e-003,
          5.8791059794303206e-003, -2.8025857900267254e-002,
          9.6387064759042192e-003, 8.6469232700469353e-003,
          -2.7792163749457038e-001, -1.3250110120714538e-002,
          1.7435106205928443e-002, -2.6166197820564743e-002,
          1.3006180105496054e-002, 2.3380986122027773e-002,
          -2.1176137994652070e-002, 2.4152099028671260e-002,
          5.5265784790381406e-003, 2.8742535689191464e-002,
          -2.0906999123337575e-002, -2.4750410175223149e-002,
          -1.1902249544686364e-002, -3.7129276292442517e-002,
          2.1967791894692205e-003, 8.4401021133405172e-003,
          -1.8220317664728602e-002, 1.3858591669787883e-002,
          1.0241079209823615e-002, 2.4951027523003721e-002,
          -1.8155656257835801e-002, -4.0943061755274131e-002,
          -9.9591472420842621e-003, -2.0517237587864837e-002,
          2.5692279565887554e-002, 2.4261650764437689e-003,
          7.0122447300581502e-003, -2.2813587709811307e-002,
          1.6433509437977882e-002, -8.2761356446223785e-003,
          -5.2682347973275612e-001, 6.8450730194036420e-004,
          3.4786149956999170e-002, -3.9163020017429294e-002,
          9.8610148139388603e-003, 2.5606165800814359e-002,
          -1.5912269485459266e-002, 5.8525592834059746e-002,
          -8.0210582090274891e-003, 4.7337264003513832e-002,
          -4.7789586372280861e-002, -5.6653691154182853e-002,
          -2.9640150392803537e-002, -5.1523993895608543e-002,
          -7.1055209509146696e-003, 1.4392930372090031e-002,
          -1.2565100188118702e-002, 2.6922887753171060e-002,
          3.3352674300758507e-002, 3.4093937189591798e-002,
          -4.1797206276817336e-002, -5.9044917048485003e-002,
          -3.6712306967595643e-002, -5.3256564047131409e-002,
          3.5335378961807509e-002, -3.2905041733156822e-003,
          1.4661868773972074e-002, -4.3393756721362163e-002,
          4.5708573100869211e-002, 4.5877013382418135e-003,
          -5.2256090700150748e-001, -1.2984086661890108e-002,
          3.7854742209556660e-002, -3.9799080661440771e-002,
          1.0126438335789203e-002, 4.4269100016874910e-002,
          -2.3807502241528142e-002, 5.5098664331571512e-002,
          -7.8022016279987510e-003, 4.0935981850980276e-002,
          -4.6311724062441058e-002, -4.2510907392125562e-002,
          -2.1905189491252967e-002, -4.4059784260786251e-002,
          1.1324944790237048e-002, 3.1895531903091717e-002,
          -1.9792347356777772e-002, 2.9560556189464144e-002,
          1.8492341394159263e-002, 3.0715110407960752e-002,
          -3.8888850768562577e-002, -6.5183988369616627e-002,
          -4.1263185905048280e-002, -4.4698649174194201e-002,
          4.0065210992087964e-002, -3.7901393291172938e-003,
          2.7879726724190403e-002, -3.6806221852097649e-002,
          3.8008007793144560e-002, -9.6508844508003018e-003,
          -3.1798492602354361e-001, 6.4521739574260909e-003,
          1.0198303665003157e-002, -2.4547096223756601e-002,
          -8.7513676460355769e-003, 1.7648360390951610e-002,
          -1.3446037567770543e-002, 3.7336373332850219e-002,
          -4.1356401042181353e-003, 3.0500025546325069e-002,
          -2.2244277023550193e-002, -3.1259762299250808e-002,
          -1.1959122153766601e-002, -2.7969413535197149e-002,
          2.2012592996016162e-003, 7.3641392427755536e-003,
          -3.9200118944236334e-003, 6.7707101915159039e-003,
          2.1213113656677999e-002, 1.2175734503788569e-002,
          -2.9007303107679069e-002, -3.5095368883449780e-002,
          -1.9369195386004855e-002, -2.5260121760820826e-002,
          2.1457846837577624e-002, -1.0744829636046248e-002,
          1.8114426951548294e-002, -3.3347546109939029e-002,
          2.7651075484390795e-002, -5.7378910428527927e-003,
          -3.3693737084847342e-001, -2.4637575129155534e-003,
          1.9856154199550963e-002, -3.0243011367490840e-002,
          -8.9531824603786350e-003, 1.8106249744976328e-002,
          -1.1216259311987043e-003, 2.7049924974134585e-002,
          -3.8490726127068269e-003, 1.6599014831002276e-002,
          -2.9910195738435490e-002, -3.6162278549594952e-002,
          -3.0869883667305163e-002, -2.9238731451408990e-002,
          9.1602299473084424e-003, 7.0262743420757843e-003,
          -1.8991971899330884e-002, 1.1686458110179250e-002,
          2.0110695605298629e-002, 2.4992876368976433e-002,
          -2.2569766700406693e-002, -4.4411705490953732e-002,
          -2.8136458947193365e-002, -2.8733330258194748e-002,
          3.3976830521916156e-002, 3.6231182279758819e-003,
          9.0555658185391442e-003, -2.8534271024329951e-002,
          3.2362378085375051e-002, -2.5591640272857818e-003,
          -3.7271010473836713e-001, -4.2559427206684936e-004,
          1.4073323641985535e-002, -2.3141798665773618e-002,
          3.2570383062871001e-003, 3.0432914559222420e-002,
          -1.3591977688161359e-002, 3.5098822962522681e-002,
          3.9271400161915195e-003, 2.5568208049112754e-002,
          -3.1978425845937561e-002, -4.6220856614909649e-002,
          -2.8990715134127844e-002, -3.0625406327578878e-002,
          -7.2048691229897929e-003, 5.6481730011686566e-003,
          -1.9149008111881621e-002, 1.9634598683920191e-002,
          1.4914894028318200e-002, 2.6428801641983746e-002,
          -2.7708007225032451e-002, -4.9428706584577348e-002,
          -3.5526696490624433e-002, -2.7733867074078874e-002,
          1.9449181218483918e-002, -7.2074603668237300e-003,
          2.0271782351018116e-002, -2.5564372956385011e-002,
          1.9037272573473134e-002, -5.6116742522563795e-003,
          -6.6193917478787123e-001, -1.1802750078689915e-002,
          4.0588014940558151e-002, -6.3939938894488263e-002,
          3.7037352225382943e-003, 4.9874673417741371e-002,
          -2.1988612158370714e-002, 7.7470838952672746e-002,
          -7.2173768823626883e-004, 5.1372978983939284e-002,
          -5.5274311331526597e-002, -6.7709649243183609e-002,
          -3.6725017238033057e-002, -6.3035179265134481e-002,
          -5.7419901895487697e-003, 2.7141918808413674e-002,
          -3.0655690259620789e-002, 2.9773911783683295e-002,
          3.2635241111036835e-002, 4.6307344263994792e-002,
          -6.2582170065195175e-002, -8.6117896592490056e-002,
          -4.0736151419768170e-002, -5.1020715418176911e-002,
          5.3066735024433077e-002, 3.0503256697913404e-003,
          3.1915770181073506e-002, -6.9953968548017637e-002,
          6.1714512550608863e-002, -1.3691785666747341e-002,
          -6.1268176664927609e-001, -1.2653467444387983e-002,
          2.5053748259838408e-002, -4.0240478168364839e-002,
          1.5250578481175180e-002, 3.7254304346529959e-002,
          -1.7798821291203207e-002, 7.4500828375703154e-002,
          4.9455571985543307e-003, 4.9650823006162643e-002,
          -5.5921856011187356e-002, -6.2651478726017118e-002,
          -3.1891661809662408e-002, -4.8110773677568427e-002,
          6.4562526632735051e-004, 2.7637328783830770e-002,
          -2.1955609912867026e-002, 4.1708552826471068e-002,
          4.2614652328532579e-002, 3.0169608360431727e-002,
          -5.5370351785426250e-002, -8.1155900566164549e-002,
          -4.5314279445726469e-002, -5.4603516068383949e-002,
          4.2072550483166320e-002, -5.6354208192792646e-003,
          3.1992969907744237e-002, -4.9858834967804549e-002,
          5.2296545384145673e-002, 7.4391137541876670e-004,
          -5.9478450037702146e-001, -7.2897839086067708e-003,
          2.4884024701537638e-002, -4.7490756213708574e-002,
          -5.7493120486859757e-003, 4.6576013280592077e-002,
          -2.9595871594894997e-002, 6.1536051934801078e-002,
          -9.3005521031481915e-003, 4.0879920822504107e-002,
          -4.9528933305661549e-002, -5.8909814568388272e-002,
          -3.9524178671139311e-002, -6.2331926027221589e-002,
          -9.7334532115914846e-004, 3.1438335066214879e-002,
          -2.4809662940727686e-002, 3.3590911751236248e-002,
          2.2376282492768639e-002, 4.5409317885211499e-002,
          -4.7759436191894433e-002, -6.8225157247864598e-002,
          -3.1666935426310931e-002, -6.2974799240994833e-002,
          4.1306060194659731e-002, 3.9315346588414350e-003,
          1.8740435056423997e-002, -5.5404806904982090e-002,
          5.1104531794566289e-002, -1.3460306608692999e-002,
          -6.3149828523775731e-001, -7.2950842783151290e-003,
          4.2607511354798587e-002, -4.4636268149102029e-002,
          4.8884185120289031e-003, 4.3778677232220620e-002,
          -2.2769995914169425e-002, 8.3958724290353740e-002,
          -6.5494352820755159e-003, 4.8248596155258346e-002,
          -5.3370575828088025e-002, -5.3108770212241078e-002,
          -3.6773344031586330e-002, -7.1843561624732336e-002,
          -4.6886327086983776e-003, 2.0986753339720436e-002,
          -3.0388880225429467e-002, 3.9862242449268330e-002,
          2.9498115511082151e-002, 4.0179542598022845e-002,
          -5.4756896320338311e-002, -9.6127570057879572e-002,
          -3.9430411038999857e-002, -6.6916609512732511e-002,
          4.4872828427991104e-002, 9.0769809295466464e-003,
          2.2034228750013977e-002, -4.9698101126954587e-002,
          5.8501224674914830e-002, -1.4646590737192654e-003,
          -5.4332185424967760e-001, -1.1441635905983606e-002,
          2.5133191208529523e-002, -4.8975151858347991e-002,
          7.8943132501384291e-003, 4.5203611140974924e-002,
          -1.1496912787278357e-002, 5.7527206046747617e-002,
          -1.5930078015795147e-002, 5.3259083398674668e-002,
          -5.4745337994892895e-002, -5.3160079278287288e-002,
          -3.4609191960737085e-002, -6.0587011653861378e-002,
          6.1518570887890314e-004, 2.0958501231275135e-002,
          -1.3456342336692228e-002, 1.7264188670920826e-002,
          1.9450594385649767e-002, 4.2383076792511860e-002,
          -4.5101342043749999e-002, -7.9779311751785209e-002,
          -3.5630852059667803e-002, -5.0593279611411864e-002,
          3.2980959008925413e-002, -6.0286002091349770e-003,
          2.6841829635959148e-002, -4.7317610927830045e-002,
          4.6293287082042757e-002, -1.3977044337285227e-002,
          -5.0352511088202145e-001, -3.6034622651650791e-003,
          2.0632741242207896e-002, -4.8433155047959482e-002,
          -2.1587941078801275e-003, 3.6375502055470042e-002,
          -1.8871110430321112e-002, 6.0953527636871702e-002,
          -2.8562037871096733e-003, 3.9155915444905640e-002,
          -5.6559916725328160e-002, -5.4174271566049502e-002,
          -3.7730064833257547e-002, -5.4885072496830237e-002,
          7.2233454238606991e-003, 2.6606090263218356e-002,
          -1.6863958966938684e-002, 2.8494089273869823e-002,
          3.2959412224844012e-002, 4.2166171760952942e-002,
          -5.1199279338689820e-002, -7.4551127468662381e-002,
          -3.7312004354195689e-002, -4.8921065414257663e-002,
          3.6074312075519178e-002, 6.6412164250300807e-003,
          2.8178095331795518e-002, -4.4535553444322917e-002,
          4.8929715504605113e-002, 4.2024269884306546e-003,
          -3.9245073050878521e-001, 5.2432362216367871e-003,
          3.1979350375440981e-002, -2.6023063435549127e-002,
          8.1602429488904140e-003, 2.6489718646040307e-002,
          -1.7803934568742231e-002, 4.2008697254702167e-002,
          3.2234155867046901e-004, 3.5091303939408097e-002,
          -4.1377084314851521e-002, -3.5397404789858859e-002,
          -3.4506015814044673e-002, -3.9449967963219056e-002,
          1.1781734124283622e-002, 1.2547204554492236e-002,
          -2.6097614848888815e-002, 1.3308703797382252e-002,
          1.2132003435602159e-002, 1.9379850490037761e-002,
          -3.3620270596077792e-002, -5.5299024990912667e-002,
          -3.7939276796410119e-002, -4.8833376075363297e-002,
          3.2773024481050295e-002, 3.8027181821496604e-003,
          1.6498321427011010e-002, -2.8471726774149813e-002,
          3.2720027536463317e-002, -7.6228900372997191e-003,
          -3.1982728818270767e-001, -6.3560914465221842e-003,
          1.1973088377904296e-002, -2.6663740582458642e-002,
          8.3294433765024357e-003, 1.2208498357693345e-002,
          -7.4596243066115666e-003, 4.3027739132746025e-002,
          -1.3489169657817041e-002, 3.4126150419957653e-002,
          -2.8927113648085326e-002, -2.9400742103348532e-002,
          -2.2455529711540485e-002, -2.7071248425631800e-002,
          2.3120406903946737e-003, 3.7099932242836598e-003,
          -1.7451589601086722e-002, 1.9337095081542754e-002,
          1.0339586481407051e-002, 2.7564243138252627e-002,
          -2.8036549941675593e-002, -4.8028644568541445e-002,
          -2.1116001691672569e-002, -2.2047211732883938e-002,
          3.5662843321173171e-002, 4.1022016214423167e-004,
          1.2345225272437950e-002, -2.5252076881192118e-002,
          3.5757282469474440e-002, -6.4657059762104436e-003,
          -1.2260060039144571e-001, 8.3231067720940903e-003,
          1.4077126131582504e-002, -2.0401366390697527e-002,
          -7.1063836295134743e-003, 1.8371383083532582e-003,
          -3.5502398469327585e-003, 1.9334537498030848e-002,
          1.3214495524100369e-003, 7.0818305704063358e-003,
          -1.2062866055667877e-002, -3.5139230234464557e-003,
          -7.5359454699897997e-004, -8.2936230652441711e-003,
          8.8965736521476203e-003, 1.0790934673665776e-002,
          -8.9918849631462610e-003, 9.4830729162821877e-003,
          1.5347728366947097e-002, 2.2821133511251126e-003,
          -2.2623660479930481e-002, -1.8306987612922227e-002,
          -1.8745075847346682e-002, -1.0704040641488522e-002,
          3.3773687100101687e-003, 7.0649931495995570e-003,
          -5.4564879967788924e-003, -8.5364637783620946e-003,
          9.0050213586856370e-003, 1.2308822891616104e-003,
          -3.6293628232283842e-001, 6.0223504037052583e-004,
          1.8030565446367695e-002, -3.3976755237324158e-002,
          1.4523460504171706e-002, 1.9402079828059415e-002,
          -6.7691298480334764e-003, 4.4932889039030539e-002,
          -3.5277077980811295e-003, 3.0457022648522961e-002,
          -2.6737745796934814e-002, -3.0695308692614144e-002,
          -1.6599128467179279e-002, -2.7019013755254999e-002,
          -4.1929237886914811e-004, 1.8962700032487369e-002,
          -9.9066035707322028e-003, 1.0075659820329326e-002,
          2.4826959430331575e-002, 3.0667491374712058e-002,
          -2.3909804197058890e-002, -4.5300725080598472e-002,
          -1.5025070494590518e-002, -2.4116819104583801e-002,
          2.4303160615482496e-002, -2.4813923417992602e-005,
          2.0511988560681645e-002, -2.5380079712861218e-002,
          2.8576677146691289e-002, -9.2159077458946175e-003,
          -1.9578340546810466e-001, -6.6723181761529611e-004,
          1.9238923111381246e-002, -5.7300476811195647e-003,
          1.7109323302638565e-003, 1.5251404901173823e-002,
          4.9450021981336210e-003, 2.4051534053455285e-002,
          -6.2561751444268699e-003, 1.9684001999470506e-002,
          -2.6212921577408239e-002, -2.3698405741352031e-002,
          -1.9924184373482062e-002, -2.0088489530561582e-002,
          6.2715897169598822e-003, 1.3963237886185895e-002,
          9.9840250655065343e-004, 3.3921486797867141e-003,
          1.4474397989147835e-002, 1.2111769781246323e-002,
          -2.4628101520786601e-002, -1.0054732240497570e-002,
          -3.7130906549299541e-003, -2.1211892493278053e-002,
          1.3798568202342569e-002, -9.8207983717646437e-003,
          1.1475829825341789e-003, -4.4060268264418702e-003,
          9.2951954560864507e-003, -9.8554817187821754e-003,
          -4.0864785680349347e-001, -8.6341314050673804e-003,
          2.8919763683377578e-002, -2.8236690859373179e-002,
          1.3855110615967937e-002, 1.8842040083493182e-002,
          -8.9170118076226795e-003, 3.6773971087410803e-002,
          -9.7439430380341224e-003, 2.7208085467110787e-002,
          -2.9759425794446688e-002, -4.2422967099768019e-002,
          -2.0978139712487402e-002, -3.7009459052154213e-002,
          1.0411045277807276e-002, 6.1153814253780640e-003,
          -5.7709948090921177e-003, 2.8761351230611139e-002,
          1.7565698774215294e-002, 1.8570780791883120e-002,
          -3.5641329203256501e-002, -5.4270739106875111e-002,
          -1.6509785695061622e-002, -4.4258417019368577e-002,
          2.4053046472837854e-002, 1.2644652437111409e-003,
          8.2609291730188269e-003, -3.9958562622040020e-002,
          3.0371929127513284e-002, -3.2934513915168929e-003,
          -8.9362121349203544e-002, -5.9717091092714196e-003,
          9.8274349338338049e-003, -1.0778794174105624e-002,
          -3.3376770800244608e-003, 1.2143640381937867e-002,
          -9.7067702274105470e-003, 1.2153664377418267e-002,
          -3.0976549641881621e-003, -2.1106290706176755e-003,
          -5.0710384609618433e-003, -6.4194853618779902e-003,
          -1.1253803941921714e-002, -7.1011271304620913e-003,
          8.9078206531532627e-003, 9.4877723163815653e-003,
          -5.7479302965701686e-003, -3.4853343366917218e-004,
          1.0509137330487302e-002, 4.8024084105365824e-003,
          2.0637380946133951e-003, -1.1364643816115846e-002,
          -1.4841506995054201e-002, 4.0961287660010622e-003,
          1.0477066248377475e-002, 3.2209732364083645e-003,
          -6.6637361978825584e-003, -5.8331888378653999e-003,
          -5.9242996917415673e-004, -1.1486506712878930e-002,
          -1.2123128987741223e-001, -8.4909738230220886e-003,
          -3.4294429710004662e-003, -1.4934465346099058e-002,
          5.3173924795281834e-003, -2.7293010413251065e-003,
          1.4683142257159074e-003, 5.0059768078085411e-003,
          4.1807583415481804e-004, 1.3694755046486701e-003,
          -1.5349227112626852e-002, -9.7774041315239445e-003,
          -9.6929089631990328e-003, -6.9415543180420978e-003,
          6.5584981803151138e-003, 1.0962181254459236e-002,
          1.3575475268342671e-003, -4.4311065645848168e-004,
          1.2044964400734721e-002, 1.6934404787982249e-003,
          -1.0467533612580873e-002, -8.3139924011800554e-003,
          1.5053544996126093e-003, -1.0650202237895355e-002,
          1.1772788428251168e-002, -3.2043917738064573e-003,
          5.6559086809528586e-003, -6.5456861583139507e-003,
          1.2723020233104334e-002, -7.9793240972098924e-003,
          -1.2851960273502744e-001, 7.9606512743267185e-003,
          -1.7920217738099482e-003, -1.6237378977815294e-002,
          -1.5183612646596956e-003, 7.7619074429424373e-003,
          -5.2452887626684899e-003, 7.9402707101979015e-003,
          -1.1695865196406044e-002, 6.7647138774272501e-003,
          -1.0762226920945982e-002, -9.3869828490968192e-003,
          -1.0721188948194340e-002, -9.6799659046696348e-003,
          -8.8695047654754854e-003, 1.2634848577051780e-002,
          -1.5671552546804825e-002, -5.1748448143324615e-004,
          3.9667941746656041e-003, 8.3540261948571691e-003,
          -7.8464124909986225e-003, -1.0488068229714190e-002,
          2.4888067654234912e-003, -1.7279354607910618e-002,
          4.0442287749502060e-003, -8.6995957676489332e-003,
          -1.0271436304710919e-003, -1.8716322953730637e-002,
          -2.2149058469241043e-003, -6.2794319408224532e-003,
          -3.0378058827593885e-001, -2.9342479831585087e-003,
          1.1103488965014462e-002, -1.8767351511786656e-002,
          1.0382581206044151e-002, 1.2545637723076847e-002,
          -3.5270891777815232e-003, 3.3471073576412790e-002,
          -2.6170336181579362e-003, 1.5835475995844360e-002,
          -3.0051489248907347e-002, -2.1742326364104003e-002,
          -2.2374152659314337e-002, -2.2129191115774719e-002,
          -4.6551243151320351e-003, 1.4540573557037891e-002,
          -7.5889039279713379e-003, 2.5219242467296898e-002,
          1.8091308055905492e-002, 1.0527138765757706e-002,
          -2.4466725521253296e-002, -4.9442609806853707e-002,
          -2.9325053418901934e-002, -2.4999231017164711e-002,
          2.1768693483111300e-002, 6.8210740651102816e-003,
          6.1681002853802283e-003, -3.5412971810923274e-002,
          3.1084430432914797e-002, -1.3508390432827489e-002,
          -2.8734942786985457e-001, -8.2662221802844004e-003,
          7.2441705615819705e-003, -2.6511591543241200e-002,
          9.9101350320367678e-003, 1.9414168865251123e-002,
          -1.1541414628018002e-002, 3.8395637707246959e-002,
          4.3609239601275496e-003, 2.2282366580326372e-002,
          -2.2627132824294308e-002, -2.3198604577337158e-002,
          -7.7806152096062155e-003, -2.3124840858323118e-002,
          1.2150378036875702e-002, 8.4567481885113559e-003,
          -1.5922760291820340e-002, 2.1195914017662715e-002,
          5.8778679705120494e-003, 2.0539201878704262e-002,
          -2.7829706816895932e-002, -3.2179912092887557e-002,
          -2.6720184150286229e-002, -1.8533847533967585e-002,
          1.1780161622293171e-002, -8.4648014263077678e-003,
          5.0205062239460311e-003, -2.0687451606955364e-002,
          3.1707050992882492e-002, 6.6523123742584052e-003,
          -1.6624972291998455e-001, -9.6736135377340794e-004,
          1.8981500295665584e-002, -1.7652843066402475e-002,
          -5.1065661030418683e-003, 1.7525164743498699e-002,
          -1.1979817535236902e-002, 2.7709371111456240e-002,
          -2.4430456883717949e-003, 1.3948528019152320e-002,
          -9.8078417017253214e-003, -2.2205286951805559e-002,
          -1.1853073328290066e-002, -1.4354417957594016e-002,
          2.8055553937023211e-003, 2.3688583513546912e-003,
          2.7316628254942774e-004, 1.8606460196328532e-002,
          9.0256864324428261e-003, 9.2382959394953796e-003,
          -2.3535906700188285e-002, -2.5555803379641581e-002,
          -1.0691765675801657e-002, -9.6747476075953760e-003,
          3.1238580328806706e-003, 5.1981533143915784e-003,
          2.2160805972683589e-003, -2.3751150621816784e-002,
          5.2175506137534019e-003, -1.0415396886017371e-002,
          -3.0642511287573115e-001, -1.0459988568495632e-002,
          2.1672053573301427e-002, -2.1273679910370717e-002,
          2.2088545275148752e-003, 1.4477255398501625e-002,
          1.2559267069248798e-003, 3.7181179558604387e-002,
          -4.8371974489266594e-003, 2.8281367701595450e-002,
          -1.9106351977035498e-002, -2.9200820298360183e-002,
          -2.7121254253389709e-002, -2.9005631319689827e-002,
          -6.0814907674171552e-003, 1.7871048781495258e-002,
          -1.4261975471837302e-002, 6.5212264186971809e-003,
          1.8310013266639828e-002, 2.3257180822267989e-002,
          -2.1190917154693477e-002, -2.6597080552490913e-002,
          -2.0732285685910040e-002, -3.2167206343151872e-002,
          1.4193455481125718e-002, -3.2391073926345440e-003,
          1.5073274525998126e-002, -3.3210122056156990e-002,
          2.7835373169999959e-002, -1.1957947030589453e-002,
          -4.3796769640847150e-001, -1.0407666984317662e-002,
          2.2792531410619890e-002, -4.1220995006315590e-002,
          -3.5909028872211112e-003, 3.0817984760244239e-002,
          -2.1006464411849890e-002, 5.2358989302870571e-002,
          -1.2126311104798504e-002, 2.4046662911402932e-002,
          -5.0530030981585143e-002, -4.0179192857682025e-002,
          -2.7528911948384548e-002, -5.2978582643993223e-002,
          3.7229373885165401e-003, 2.2180260299249174e-002,
          -9.8665418635687924e-003, 2.6248966566306115e-002,
          2.5537832975036371e-002, 3.3998532801038747e-002,
          -3.4691552334268703e-002, -5.6364185584710264e-002,
          -2.4847216828222593e-002, -4.1462465986442452e-002,
          4.1517665270031416e-002, 3.5585725362498725e-003,
          5.1845687017864186e-003, -2.9955268639463208e-002,
          3.8937656071079609e-002, -1.2654574498936470e-002,
          -4.3132883250696774e-001, 4.8593540871958120e-003,
          1.5916056282999774e-002, -4.4693907181399740e-002,
          -6.4994294305090860e-003, 3.9051727826334391e-002,
          -1.4058582554799358e-002, 4.2961831180639502e-002,
          -9.1514517444134507e-003, 3.1113665279781790e-002,
          -4.5797507183030085e-002, -5.1517620253243544e-002,
          -2.8383824272808167e-002, -3.1978987919200334e-002,
          -2.4182601745207739e-003, 1.9868580364227829e-002,
          -1.5056273820080136e-002, 2.7608445772884165e-002,
          2.8218709052549758e-002, 1.7874091530300271e-002,
          -3.1321271550707817e-002, -5.5562859134112401e-002,
          -4.2434484716286143e-002, -3.4612492279441569e-002,
          2.3803727085247618e-002, 9.7904562148491865e-003,
          7.1234975114548233e-003, -4.5699258394384761e-002,
          3.3156552621518717e-002, -9.5708065318677506e-003,
          -2.7570694400287626e-001, 5.8717381945414882e-004,
          1.1352584245739438e-002, -2.1801208325126036e-002,
          7.4761371261548824e-003, 1.5395876859038982e-002,
          -1.1057990688784393e-002, 4.1804256478406701e-002,
          2.3608124119011819e-003, 1.9405513276518932e-002,
          -3.5852545119293512e-002, -3.8853032309880207e-002,
          -8.4263402229302169e-003, -3.1697503376590948e-002,
          1.0537345047917855e-002, 1.9031083528671375e-002,
          -1.7624017908437425e-002, 2.6112214439507151e-002,
          8.3711640073404793e-003, 2.9733010412160605e-002,
          -4.1195162323107958e-002, -5.2434812429011005e-002,
          -1.1778492057701694e-002, -4.0107850906000504e-002,
          2.4511143794803531e-002, 1.5548388193803960e-003,
          4.8448971313737902e-003, -3.1534623627853128e-002,
          2.4667570592916042e-002, 2.5243021041736853e-003,
          -2.2236099733594614e-001, 3.6233750949838041e-003,
          1.1287729882465521e-002, -1.3870097688958770e-002,
          9.5164513056037001e-004, 2.0740943158571140e-002,
          -1.8614238153165426e-002, 2.7764602691902923e-002,
          2.7788576215708742e-003, 1.1772095615640665e-002,
          -2.4921829578555245e-002, -3.3140427538244380e-002,
          -1.1949650784902717e-002, -4.0034879402962568e-002,
          -5.4476267437452127e-003, 8.1941661508666466e-003,
          -1.6453891412118823e-002, 7.7193652150851482e-003,
          2.2790209500642821e-002, 2.1156119680889620e-002,
          -3.6320514116680323e-002, -4.3746110427654139e-002,
          -2.2345136456901272e-002, -3.1191610118347854e-002,
          1.4658384144536572e-002, 9.2096670531659763e-003,
          -1.1451419165734206e-003, -3.0794888340834853e-002,
          2.8068284062781668e-002, -1.2619651814280639e-002,
          -2.5468512415823058e-001, -9.0581173212527667e-003,
          2.0967223142810559e-002, -1.7339740828663158e-002,
          -8.8925233103008116e-004, 1.3766880192735753e-002,
          -1.5796869874810222e-002, 3.4252136826358658e-002,
          8.7720922698476169e-003, 1.5407750736264990e-002,
          -3.1671783009354318e-002, -3.2660057655933709e-002,
          -2.3385298635553064e-002, -2.9188885770701233e-002,
          -4.7983489689487078e-003, 1.6499485633917444e-002,
          -1.3744119398761351e-002, 1.3963322130214333e-002,
          1.2950550471204287e-002, 1.7850214085148950e-002,
          -3.4361717662777305e-002, -5.1295955679219102e-002,
          -1.1532466844414641e-002, -2.6659756053603458e-002,
          2.8952606791910116e-002, 1.0358415953460565e-002,
          1.8203213708398489e-002, -3.2911733876247018e-002,
          3.3954500273490562e-002, 1.4839191156999598e-003,
          -3.0270770312782969e-001, 1.7534855114869272e-003,
          2.8093926005381468e-002, -3.5175608526034012e-002,
          -7.2335654816282956e-004, 1.9083048747863127e-002,
          -1.4414321213176087e-002, 3.3315950315388566e-002,
          -4.3994436545589178e-003, 2.2256185846406561e-002,
          -3.4707514214788120e-002, -4.4032776439921643e-002,
          -9.7310545593304928e-003, -3.4756281755168754e-002,
          1.1493171626595371e-002, 2.1288421361887997e-002,
          -2.4376006944692604e-002, 1.5460772066416039e-002,
          2.4772981622543808e-002, 3.0688556493939402e-002,
          -4.1584980611674358e-002, -3.6582703584897416e-002,
          -2.4892936068375494e-002, -2.1501744946841150e-002,
          1.8519845135254689e-002, -6.4636431536955917e-003,
          1.5546480133004218e-002, -3.9653542249843715e-002,
          3.0434614531894100e-002, -1.2591580786240727e-002,
          -1.6378764825468370e-001, -5.9827443818795695e-003,
          5.4320836580878879e-003, -8.3934530905512561e-003,
          -5.5291667059328723e-003, 3.4538804349349074e-003,
          3.0748220233689158e-003, 2.1466838461858845e-002,
          6.0691022816847613e-003, 6.4113167250126031e-003,
          -9.9677708068244657e-003, -1.1865233491512323e-002,
          -1.4577719576799370e-002, -9.4432918805245052e-003,
          1.0353430146508073e-002, 9.2368478968694813e-004,
          -1.2247143200289171e-002, 1.9328561964144751e-002,
          5.7826897063523080e-003, 1.7197523591862256e-002,
          -1.7017657958422548e-002, -3.4678987258745998e-002,
          -1.4125498184133698e-002, -2.6691621012072855e-002,
          2.0277233180977513e-002, 4.2173303424902020e-003,
          2.8282828370902449e-003, -1.3838643976996053e-002,
          2.1006462503614903e-002, -4.0582059624840209e-003,
          -1.0284746130851492e-001, 7.8060942077257641e-003,
          1.6232395300835353e-002, -7.8675433712049291e-003,
          6.9148430262415831e-003, 1.6427257503101660e-003,
          -4.2404667089614347e-003, 1.3366217492271227e-002,
          -4.8962511273584006e-003, 3.0237324452802938e-004,
          -1.5288012502368567e-002, -2.0517872642136968e-002,
          -7.7817202044439492e-005, -6.2420909922151959e-003,
          2.9509970537357666e-003, 5.9372337482753862e-003,
          -2.4684155401288894e-003, 1.0585937157100302e-002,
          6.1535258053080225e-004, 1.7440902937024234e-002,
          -9.1184563854739414e-003, -1.5179428917031366e-002,
          1.4760096885806124e-003, -6.6823925489001932e-003,
          1.7350224022645362e-002, -7.9758664897976884e-003,
          -5.6583793162614700e-003, -7.8384700591765284e-003,
          4.2102497824962424e-003, 5.7867267743419906e-003,
          9.8127550323128081e-003, -5.5951968742541745e-003,
          1.2735441577946401e-003, -8.1400816631745625e-003,
          -6.2436789990467558e-003, -6.8056653565937673e-004,
          1.7046689642785497e-003, 5.9753292038306613e-003,
          9.6774117097311926e-003, -9.4312517613067434e-004,
          -8.5381460782152155e-003, -9.6168666153858048e-003,
          2.2551209208777827e-003, 2.5568872314301215e-003,
          1.0697485686749178e-002, -8.3376652860014441e-003,
          -7.9170198187402726e-003, 8.7453477876143874e-003,
          -7.3583445651153427e-003, 8.8150290090061884e-003,
          -3.9374158834005911e-003, -1.0869658616296515e-002,
          -1.2567756598610664e-002, -7.0925906386288713e-003,
          -4.8448279702095242e-003, 8.6443038987937953e-003,
          1.1289258072502592e-002, 9.0313448737910969e-003,
          3.4522539755854108e-003, -2.4097486010865894e-004,
          1.5599059672708038e-001, -2.3854255992194532e-003,
          -3.1270594435723500e-003, 2.1339644164269339e-004,
          -1.2163595240772125e-002, -1.0562015242903542e-002,
          1.5777882948185887e-002, -2.1215267842682285e-002,
          1.0551630456228754e-002, -1.5013394141699584e-002,
          8.6973672610583183e-003, 1.1961931022457609e-002,
          1.0271471981573974e-002, 2.1951640627550142e-003,
          -8.4942972789943030e-003, 6.0025753256224591e-004,
          -6.0692414982197618e-003, -1.2906217023285231e-002,
          -8.9046510508000772e-003, -7.3510837451902398e-003,
          5.3139679908864178e-004, 8.1110312761174981e-003,
          4.1048523689343917e-003, 1.1629492556094823e-003,
          -1.4598650575309107e-002, 6.3108458832676878e-004,
          4.9571520624840659e-003, 1.0188161705104478e-002,
          -1.9542762947220953e-002, -6.3133826955429316e-003,
          1.7334119182564198e-001, 9.6722806265327650e-003,
          -1.4729444104323185e-002, 9.1231689909662059e-003,
          2.7034726436932412e-003, -1.7712307047073408e-002,
          5.8546994740347642e-003, -1.8938692571507890e-002,
          1.0930779205994817e-002, -2.3455249498550285e-002,
          8.0996326148041180e-003, 2.3897107116102101e-002,
          1.5911131851498072e-002, 1.4287361744438058e-002,
          -8.3283090051870286e-003, -3.4746728924392638e-003,
          -3.7642026461414610e-003, -1.8460441567924604e-002,
          -9.1218166571306169e-003, -2.0446657061031253e-002,
          1.0857214650385598e-002, 3.7236876414007622e-002,
          2.4910896695869062e-002, 1.6922077756536986e-002,
          -6.3815563268585923e-003, 5.7507130595147869e-004,
          -9.2944966095553905e-004, 1.3204972781963637e-002,
          -1.9829301212574410e-002, -6.3152281343529454e-003,
          1.6992495858472087e-001, 6.3801601811038144e-003,
          -2.0045483049705964e-002, 2.3997018900988373e-002,
          -3.0524845794698222e-003, -5.7907753544895755e-003,
          1.0087276752009764e-003, -1.8434898852057971e-002,
          8.8025071805040486e-003, -2.4675921028635368e-002,
          1.7070230838949298e-002, 3.0357343330307412e-002,
          5.5700937839250394e-003, 1.4086866421592218e-002,
          1.9813915311407146e-003, -1.3664887911692541e-002,
          1.1039308121209448e-002, -5.5468762610418844e-003,
          -1.3863818475032000e-002, -1.8290709631993379e-003,
          2.7277662057809775e-002, 3.2569359954342056e-002,
          5.8714136892746719e-003, 1.5414293097007585e-002,
          -1.4720813371263408e-002, 7.9327725861190919e-003,
          -6.5689373812375619e-003, 2.8234358198998270e-002,
          -2.3118467957296124e-002, 7.4205287208289937e-003,
          1.5634416921125696e-001, 4.8947456755928098e-004,
          -4.9937589035247603e-003, 1.8900101810474759e-002,
          9.9010309826812574e-003, -7.9952656654331631e-003,
          1.6314194970042925e-002, -1.4772278363328083e-002,
          -9.0840023934011891e-003, -2.1445555328571040e-002,
          1.2215873300389334e-002, 8.7765206773860495e-003,
          6.2884725301909482e-003, 1.2801987536526623e-002,
          8.7163123793851088e-003, 2.8862709867454243e-003,
          1.2191041116014495e-002, -7.5319299713871553e-003,
          -1.0045826419065724e-002, -8.6105505935669003e-003,
          1.2346174123048295e-002, 1.5243420055973352e-002,
          1.0678433111679915e-002, 2.3969413383017155e-002,
          -1.5353902587879593e-002, -9.6958467056273961e-003,
          -1.5863813220635400e-002, 8.0846588791594672e-003,
          -1.8268288477740716e-002, -1.8216248679741227e-003,
          6.6646951532221843e-001, 6.3072044820311401e-003,
          -2.9685948637152917e-002, 5.0171432829789010e-002,
          -2.1626702208028120e-003, -3.9509392408533558e-002,
          1.9595519643307271e-002, -8.4730612235282929e-002,
          1.1276009419535238e-002, -6.1621400531637401e-002,
          5.6854426763765717e-002, 6.2383355965865341e-002,
          4.5621292228698630e-002, 6.3704331604509126e-002,
          4.2597134906143174e-003, -3.1628525983731323e-002,
          2.2072815791780363e-002, -4.1910681384068511e-002,
          -2.8628557498217650e-002, -5.5846269939790943e-002,
          5.4394292755754185e-002, 9.1371810997343400e-002,
          5.5064391784271721e-002, 6.0039934365313560e-002,
          -4.7105244672085232e-002, -1.0037374197066764e-002,
